<?xml version="1.0"?>
<MethodSetup Method="BDT::BDTG">
  <GeneralInfo>
    <Info name="TMVA Release" value="4.2.0 [262656]"/>
    <Info name="ROOT Release" value="5.34/18 [336402]"/>
    <Info name="Creator" value="cvernier"/>
    <Info name="Date" value="Wed Oct 14 18:42:21 2015"/>
    <Info name="Host" value="Linux cmsdev02.cern.ch 2.6.32-431.23.3.el6.x86_64 #1 SMP Wed Jul 30 09:43:11 CEST 2014 x86_64 x86_64 x86_64 GNU/Linux"/>
    <Info name="Dir" value="/afs/cern.ch/work/c/cvernier/testRegression/CMSSW_7_2_2_patch2/src/hlt_pileup/PuIdTreeProducer/test_HiggsTagging/codeTraining_june/HiggsTagger/test-opt/ca15_training"/>
    <Info name="Training events" value="2208801"/>
    <Info name="TrainingTime" value="3.32213986e+03"/>
    <Info name="AnalysisType" value="Classification"/>
  </GeneralInfo>
  <Options>
    <Option name="V" modified="Yes">False</Option>
    <Option name="VerbosityLevel" modified="No">Default</Option>
    <Option name="VarTransform" modified="No">None</Option>
    <Option name="H" modified="Yes">False</Option>
    <Option name="CreateMVAPdfs" modified="No">False</Option>
    <Option name="IgnoreNegWeightsInTraining" modified="No">False</Option>
    <Option name="NTrees" modified="Yes">300</Option>
    <Option name="MaxDepth" modified="Yes">4</Option>
    <Option name="MinNodeSize" modified="Yes">2.5%</Option>
    <Option name="nCuts" modified="Yes">20</Option>
    <Option name="BoostType" modified="Yes">Grad</Option>
    <Option name="AdaBoostR2Loss" modified="No">quadratic</Option>
    <Option name="UseBaggedBoost" modified="No">False</Option>
    <Option name="Shrinkage" modified="Yes">2.000000e-01</Option>
    <Option name="AdaBoostBeta" modified="No">5.000000e-01</Option>
    <Option name="UseRandomisedTrees" modified="No">False</Option>
    <Option name="UseNvars" modified="No">5</Option>
    <Option name="UsePoissonNvars" modified="No">True</Option>
    <Option name="BaggedSampleFraction" modified="No">6.000000e-01</Option>
    <Option name="UseYesNoLeaf" modified="No">True</Option>
    <Option name="NegWeightTreatment" modified="No">ignorenegweightsintraining</Option>
    <Option name="Css" modified="No">1.000000e+00</Option>
    <Option name="Cts_sb" modified="No">1.000000e+00</Option>
    <Option name="Ctb_ss" modified="No">1.000000e+00</Option>
    <Option name="Cbb" modified="No">1.000000e+00</Option>
    <Option name="NodePurityLimit" modified="No">5.000000e-01</Option>
    <Option name="SeparationType" modified="Yes">misclassificationerror</Option>
    <Option name="DoBoostMonitor" modified="No">False</Option>
    <Option name="UseFisherCuts" modified="No">False</Option>
    <Option name="MinLinCorrForFisher" modified="No">8.000000e-01</Option>
    <Option name="UseExclusiveVars" modified="No">False</Option>
    <Option name="DoPreselection" modified="No">False</Option>
    <Option name="SigToBkgFraction" modified="No">1.000000e+00</Option>
    <Option name="PruneMethod" modified="Yes">costcomplexity</Option>
    <Option name="PruneStrength" modified="Yes">2.000000e+00</Option>
    <Option name="PruningValFraction" modified="No">5.000000e-01</Option>
    <Option name="nEventsMin" modified="No">0</Option>
    <Option name="UseBaggedGrad" modified="No">False</Option>
    <Option name="GradBaggingFraction" modified="No">6.000000e-01</Option>
    <Option name="UseNTrainEvents" modified="No">0</Option>
    <Option name="NNodesMax" modified="No">0</Option>
  </Options>
  <Variables NVar="27">
    <Variable VarIndex="0" Expression="z_ratio" Label="z_ratio" Title="z_ratio" Unit="" Internal="z_ratio" Type="F" Min="-3.00000000e+00" Max="8.01018555e+02"/>
    <Variable VarIndex="1" Expression="trackSipdSig_3" Label="trackSipdSig_3" Title="trackSipdSig_3" Unit="" Internal="trackSipdSig_3" Type="F" Min="-6.81021973e+02" Max="2.04040771e+02"/>
    <Variable VarIndex="2" Expression="trackSipdSig_2" Label="trackSipdSig_2" Title="trackSipdSig_2" Unit="" Internal="trackSipdSig_2" Type="F" Min="-1.50505420e+03" Max="3.81112305e+02"/>
    <Variable VarIndex="3" Expression="trackSipdSig_1" Label="trackSipdSig_1" Title="trackSipdSig_1" Unit="" Internal="trackSipdSig_1" Type="F" Min="-4.16977081e+02" Max="1.47863843e+03"/>
    <Variable VarIndex="4" Expression="trackSipdSig_0" Label="trackSipdSig_0" Title="trackSipdSig_0" Unit="" Internal="trackSipdSig_0" Type="F" Min="-2.74371368e+02" Max="3.66106909e+03"/>
    <Variable VarIndex="5" Expression="trackSipdSig_1_0" Label="trackSipdSig_1_0" Title="trackSipdSig_1_0" Unit="" Internal="trackSipdSig_1_0" Type="F" Min="-1.50505420e+03" Max="3.06048926e+03"/>
    <Variable VarIndex="6" Expression="trackSipdSig_0_0" Label="trackSipdSig_0_0" Title="trackSipdSig_0_0" Unit="" Internal="trackSipdSig_0_0" Type="F" Min="-1.00521326e+03" Max="3.66106909e+03"/>
    <Variable VarIndex="7" Expression="trackSipdSig_1_1" Label="trackSipdSig_1_1" Title="trackSipdSig_1_1" Unit="" Internal="trackSipdSig_1_1" Type="F" Min="-6.21084167e+02" Max="1.13192920e+03"/>
    <Variable VarIndex="8" Expression="trackSipdSig_0_1" Label="trackSipdSig_0_1" Title="trackSipdSig_0_1" Unit="" Internal="trackSipdSig_0_1" Type="F" Min="-9.66419861e+02" Max="1.47863843e+03"/>
    <Variable VarIndex="9" Expression="trackSip2dSigAboveCharm_0" Label="trackSip2dSigAboveCharm_0" Title="trackSip2dSigAboveCharm_0" Unit="" Internal="trackSip2dSigAboveCharm_0" Type="F" Min="-2.46620331e+01" Max="1.09969444e+02"/>
    <Variable VarIndex="10" Expression="trackSip2dSigAboveBottom_0" Label="trackSip2dSigAboveBottom_0" Title="trackSip2dSigAboveBottom_0" Unit="" Internal="trackSip2dSigAboveBottom_0" Type="F" Min="-3.57857780e+01" Max="9.02888107e+01"/>
    <Variable VarIndex="11" Expression="trackSip2dSigAboveBottom_1" Label="trackSip2dSigAboveBottom_1" Title="trackSip2dSigAboveBottom_1" Unit="" Internal="trackSip2dSigAboveBottom_1" Type="F" Min="-5.61698723e+01" Max="6.46215515e+01"/>
    <Variable VarIndex="12" Expression="tau0_trackEtaRel_0" Label="tau0_trackEtaRel_0" Title="tau0_trackEtaRel_0" Unit="" Internal="tau0_trackEtaRel_0" Type="F" Min="-3.00000000e+00" Max="7.96605539e+00"/>
    <Variable VarIndex="13" Expression="tau0_trackEtaRel_1" Label="tau0_trackEtaRel_1" Title="tau0_trackEtaRel_1" Unit="" Internal="tau0_trackEtaRel_1" Type="F" Min="-3.00000000e+00" Max="1.03322792e+01"/>
    <Variable VarIndex="14" Expression="tau0_trackEtaRel_2" Label="tau0_trackEtaRel_2" Title="tau0_trackEtaRel_2" Unit="" Internal="tau0_trackEtaRel_2" Type="F" Min="-3.00000000e+00" Max="1.02178869e+01"/>
    <Variable VarIndex="15" Expression="tau1_trackEtaRel_0" Label="tau1_trackEtaRel_0" Title="tau1_trackEtaRel_0" Unit="" Internal="tau1_trackEtaRel_0" Type="F" Min="-3.00000000e+00" Max="5.72991848e+00"/>
    <Variable VarIndex="16" Expression="tau1_trackEtaRel_1" Label="tau1_trackEtaRel_1" Title="tau1_trackEtaRel_1" Unit="" Internal="tau1_trackEtaRel_1" Type="F" Min="-3.00000000e+00" Max="7.70174217e+00"/>
    <Variable VarIndex="17" Expression="tau1_trackEtaRel_2" Label="tau1_trackEtaRel_2" Title="tau1_trackEtaRel_2" Unit="" Internal="tau1_trackEtaRel_2" Type="F" Min="-3.00000000e+00" Max="7.89287567e+00"/>
    <Variable VarIndex="18" Expression="tau_vertexMass_0" Label="tau_vertexMass_0" Title="tau_vertexMass_0" Unit="" Internal="tau_vertexMass_0" Type="F" Min="-3.00000000e+00" Max="5.11961395e+02"/>
    <Variable VarIndex="19" Expression="tau_vertexEnergyRatio_0" Label="tau_vertexEnergyRatio_0" Title="tau_vertexEnergyRatio_0" Unit="" Internal="tau_vertexEnergyRatio_0" Type="F" Min="-3.00000000e+00" Max="5.00000000e+01"/>
    <Variable VarIndex="20" Expression="tau_vertexDeltaR_0" Label="tau_vertexDeltaR_0" Title="tau_vertexDeltaR_0" Unit="" Internal="tau_vertexDeltaR_0" Type="F" Min="-3.00000000e+00" Max="1.75991452e+00"/>
    <Variable VarIndex="21" Expression="tau_flightDistance2dSig_0" Label="tau_flightDistance2dSig_0" Title="tau_flightDistance2dSig_0" Unit="" Internal="tau_flightDistance2dSig_0" Type="F" Min="-3.00000000e+00" Max="5.54815796e+02"/>
    <Variable VarIndex="22" Expression="tau_vertexMass_corrected_1" Label="tau_vertexMass_corrected_1" Title="tau_vertexMass_corrected_1" Unit="" Internal="tau_vertexMass_corrected_1" Type="F" Min="-3.00000000e+00" Max="2.18162247e+02"/>
    <Variable VarIndex="23" Expression="tau_vertexEnergyRatio_1" Label="tau_vertexEnergyRatio_1" Title="tau_vertexEnergyRatio_1" Unit="" Internal="tau_vertexEnergyRatio_1" Type="F" Min="-3.00000000e+00" Max="5.00000000e+01"/>
    <Variable VarIndex="24" Expression="tau_flightDistance2dSig_1" Label="tau_flightDistance2dSig_1" Title="tau_flightDistance2dSig_1" Unit="" Internal="tau_flightDistance2dSig_1" Type="F" Min="-3.00000000e+00" Max="1.73845383e+02"/>
    <Variable VarIndex="25" Expression="jetNTracks" Label="jetNTracks" Title="jetNTracks" Unit="" Internal="jetNTracks" Type="I" Min="0.00000000e+00" Max="5.80000000e+01"/>
    <Variable VarIndex="26" Expression="nSV" Label="nSV" Title="nSV" Unit="" Internal="nSV" Type="I" Min="0.00000000e+00" Max="1.20000000e+01"/>
  </Variables>
  <Spectators NSpec="5">
    <Spectator SpecIndex="0" Expression="massPruned" Label="massPruned" Title="massPruned" Unit="" Internal="massPruned" Type="F" Min="7.00001144e+01" Max="1.99999969e+02"/>
    <Spectator SpecIndex="1" Expression="flavour" Label="flavour" Title="flavour" Unit="" Internal="flavour" Type="F" Min="-5.00000000e+00" Max="2.10000000e+01"/>
    <Spectator SpecIndex="2" Expression="nbHadrons" Label="nbHadrons" Title="nbHadrons" Unit="" Internal="nbHadrons" Type="F" Min="0.00000000e+00" Max="6.00000000e+00"/>
    <Spectator SpecIndex="3" Expression="ptPruned" Label="ptPruned" Title="ptPruned" Unit="" Internal="ptPruned" Type="F" Min="2.00000031e+02" Max="6.46411328e+03"/>
    <Spectator SpecIndex="4" Expression="etaPruned" Label="etaPruned" Title="etaPruned" Unit="" Internal="etaPruned" Type="F" Min="-2.56470442e+00" Max="2.58305931e+00"/>
  </Spectators>
  <Classes NClass="2">
    <Class Name="Signal" Index="0"/>
    <Class Name="Background" Index="1"/>
  </Classes>
  <Transformations NTransformations="0"/>
  <MVAPdfs/>
  <Weights NTrees="300" AnalysisType="1">
    <BinaryTree type="DecisionTree" boostWeight="1.0000000000000000e+00" itree="0">
      <Node pos="s" depth="0" NCoef="0" IVar="26" Cut="1.1428571939468384e+00" cType="1" res="-8.6192137411719716e-13" rms="5.0000000000000000e-01" purity="5.0000000000000000e-01" nType="0">
        <Node pos="l" depth="1" NCoef="0" IVar="21" Cut="1.8812543869018555e+01" cType="1" res="-2.0212101936340332e-01" rms="4.5732602477073669e-01" purity="2.9787901043891907e-01" nType="0">
          <Node pos="l" depth="2" NCoef="0" IVar="21" Cut="5.3093776702880859e+00" cType="1" res="-2.6778194308280945e-01" rms="4.2224735021591187e-01" purity="2.3221804201602936e-01" nType="0">
            <Node pos="l" depth="3" NCoef="0" IVar="10" Cut="1.6699117422103882e+00" cType="1" res="-3.5242089629173279e-01" rms="3.5468226671218872e-01" purity="1.4757908880710602e-01" nType="0">
              <Node pos="l" depth="4" NCoef="0" IVar="-1" Cut="0.0000000000000000e+00" cType="1" res="-1.1716745793819427e-01" rms="2.9130056500434875e-01" purity="9.3620896339416504e-02" nType="-99"/>
              <Node pos="r" depth="4" NCoef="0" IVar="-1" Cut="0.0000000000000000e+00" cType="1" res="-2.9754860326647758e-02" rms="4.4586193561553955e-01" purity="2.7371007204055786e-01" nType="-99"/>
            </Node>
            <Node pos="r" depth="3" NCoef="0" IVar="14" Cut="-4.9099928140640259e-01" cType="1" res="9.1869324445724487e-02" rms="4.9148756265640259e-01" purity="5.9186929464340210e-01" nType="0">
              <Node pos="l" depth="4" NCoef="0" IVar="-1" Cut="0.0000000000000000e+00" cType="1" res="-6.6134743392467499e-03" rms="4.9456724524497986e-01" purity="4.2649331688880920e-01" nType="-99"/>
              <Node pos="r" depth="4" NCoef="0" IVar="-1" Cut="0.0000000000000000e+00" cType="1" res="1.2165901251137257e-02" rms="4.5085325837135315e-01" purity="7.1617430448532104e-01" nType="-99"/>
            </Node>
          </Node>
          <Node pos="r" depth="2" NCoef="0" IVar="-1" Cut="0.0000000000000000e+00" cType="1" res="1.5715349465608597e-02" rms="3.8839989900588989e-01" purity="8.1487375497817993e-01" nType="-99"/>
        </Node>
        <Node pos="r" depth="1" NCoef="0" IVar="9" Cut="3.6843903064727783e+00" cType="1" res="3.0194091796875000e-01" rms="3.9853692054748535e-01" purity="8.0194097757339478e-01" nType="0">
          <Node pos="l" depth="2" NCoef="0" IVar="13" Cut="3.2480282783508301e+00" cType="1" res="1.4761254191398621e-01" rms="4.7771385312080383e-01" purity="6.4761251211166382e-01" nType="0">
            <Node pos="l" depth="3" NCoef="0" IVar="25" Cut="1.8666666030883789e+01" cType="1" res="-4.1259363293647766e-02" rms="4.9829477071762085e-01" purity="4.5874065160751343e-01" nType="0">
              <Node pos="l" depth="4" NCoef="0" IVar="-1" Cut="0.0000000000000000e+00" cType="1" res="3.8677027914673090e-03" rms="4.9703758955001831e-01" purity="5.5434739589691162e-01" nType="-99"/>
              <Node pos="r" depth="4" NCoef="0" IVar="-1" Cut="0.0000000000000000e+00" cType="1" res="-1.6692044213414192e-02" rms="4.7553768754005432e-01" purity="3.4552049636840820e-01" nType="-99"/>
            </Node>
            <Node pos="r" depth="3" NCoef="0" IVar="10" Cut="1.5237131118774414e+00" cType="1" res="2.6520395278930664e-01" rms="4.2387127876281738e-01" purity="7.6520395278930664e-01" nType="0">
              <Node pos="l" depth="4" NCoef="0" IVar="-1" Cut="0.0000000000000000e+00" cType="1" res="1.0878714732825756e-02" rms="4.6424332261085510e-01" purity="6.8568289279937744e-01" nType="-99"/>
              <Node pos="r" depth="4" NCoef="0" IVar="-1" Cut="0.0000000000000000e+00" cType="1" res="1.5903575345873833e-02" rms="3.8350644707679749e-01" purity="8.2081580162048340e-01" nType="-99"/>
            </Node>
          </Node>
          <Node pos="r" depth="2" NCoef="0" IVar="15" Cut="5.9509885311126709e-01" cType="1" res="4.0920919179916382e-01" rms="2.8731137514114380e-01" purity="9.0920919179916382e-01" nType="0">
            <Node pos="l" depth="3" NCoef="0" IVar="-1" Cut="0.0000000000000000e+00" cType="1" res="1.4708518050611019e-02" rms="4.1123288869857788e-01" purity="7.8440731763839722e-01" nType="-99"/>
            <Node pos="r" depth="3" NCoef="0" IVar="-1" Cut="0.0000000000000000e+00" cType="1" res="1.9291805103421211e-02" rms="2.3077344894409180e-01" purity="9.4355785846710205e-01" nType="-99"/>
          </Node>
        </Node>
      </Node>
    </BinaryTree>
    <BinaryTree type="DecisionTree" boostWeight="1.0000000000000000e+00" itree="1">
      <Node pos="s" depth="0" NCoef="0" IVar="26" Cut="1.1428571939468384e+00" cType="1" res="1.6061810776591301e-02" rms="4.8259776830673218e-01" purity="5.0000000000000000e-01" nType="0">
        <Node pos="l" depth="1" NCoef="0" IVar="21" Cut="1.8812543869018555e+01" cType="1" res="-1.7081555724143982e-01" rms="4.4322964549064636e-01" purity="2.9787901043891907e-01" nType="0">
          <Node pos="l" depth="2" NCoef="0" IVar="21" Cut="5.3093776702880859e+00" cType="1" res="-2.3150265216827393e-01" rms="4.1177967190742493e-01" purity="2.3221804201602936e-01" nType="0">
            <Node pos="l" depth="3" NCoef="0" IVar="10" Cut="1.6699117422103882e+00" cType="1" res="-3.0712050199508667e-01" rms="3.5058802366256714e-01" purity="1.4757908880710602e-01" nType="0">
              <Node pos="l" depth="4" NCoef="0" IVar="-1" Cut="0.0000000000000000e+00" cType="1" res="-1.0173743218183517e-01" rms="2.9130056500434875e-01" purity="9.3620896339416504e-02" nType="-99"/>
              <Node pos="r" depth="4" NCoef="0" IVar="-1" Cut="0.0000000000000000e+00" cType="1" res="-2.7823826298117638e-02" rms="4.4586193561553955e-01" purity="2.7371007204055786e-01" nType="-99"/>
            </Node>
            <Node pos="r" depth="3" NCoef="0" IVar="9" Cut="2.6022760868072510e+00" cType="1" res="8.9815728366374969e-02" rms="4.9015203118324280e-01" purity="5.9186929464340210e-01" nType="0">
              <Node pos="l" depth="4" NCoef="0" IVar="-1" Cut="0.0000000000000000e+00" cType="1" res="-3.6314784083515406e-03" rms="4.9684777855873108e-01" purity="4.5837968587875366e-01" nType="-99"/>
              <Node pos="r" depth="4" NCoef="0" IVar="-1" Cut="0.0000000000000000e+00" cType="1" res="1.2952169403433800e-02" rms="4.3773981928825378e-01" purity="7.3998266458511353e-01" nType="-99"/>
            </Node>
          </Node>
          <Node pos="r" depth="2" NCoef="0" IVar="-1" Cut="0.0000000000000000e+00" cType="1" res="1.5326989814639091e-02" rms="3.8839989900588989e-01" purity="8.1487375497817993e-01" nType="-99"/>
        </Node>
        <Node pos="r" depth="1" NCoef="0" IVar="9" Cut="3.6843903064727783e+00" cType="1" res="2.9523083567619324e-01" rms="3.9653915166854858e-01" purity="8.0194097757339478e-01" nType="0">
          <Node pos="l" depth="2" NCoef="0" IVar="13" Cut="3.2480282783508301e+00" cType="1" res="1.4441312849521637e-01" rms="4.7574058175086975e-01" purity="6.4761251211166382e-01" nType="0">
            <Node pos="l" depth="3" NCoef="0" IVar="25" Cut="1.8666666030883789e+01" cType="1" res="-3.8487147539854050e-02" rms="4.9725067615509033e-01" purity="4.5874065160751343e-01" nType="0">
              <Node pos="l" depth="4" NCoef="0" IVar="-1" Cut="0.0000000000000000e+00" cType="1" res="3.7301350384950638e-03" rms="4.9703755974769592e-01" purity="5.5434739589691162e-01" nType="-99"/>
              <Node pos="r" depth="4" NCoef="0" IVar="-1" Cut="0.0000000000000000e+00" cType="1" res="-1.5794711187481880e-02" rms="4.7553768754005432e-01" purity="3.4552049636840820e-01" nType="-99"/>
            </Node>
            <Node pos="r" depth="3" NCoef="0" IVar="10" Cut="1.5237131118774414e+00" cType="1" res="2.5828659534454346e-01" rms="4.2367911338806152e-01" purity="7.6520395278930664e-01" nType="0">
              <Node pos="l" depth="4" NCoef="0" IVar="-1" Cut="0.0000000000000000e+00" cType="1" res="1.0561297647655010e-02" rms="4.6424335241317749e-01" purity="6.8568289279937744e-01" nType="-99"/>
              <Node pos="r" depth="4" NCoef="0" IVar="-1" Cut="0.0000000000000000e+00" cType="1" res="1.5513342805206776e-02" rms="3.8350647687911987e-01" purity="8.2081580162048340e-01" nType="-99"/>
            </Node>
          </Node>
          <Node pos="r" depth="2" NCoef="0" IVar="15" Cut="5.9509885311126709e-01" cType="1" res="4.0005892515182495e-01" rms="2.8709807991981506e-01" purity="9.0920919179916382e-01" nType="0">
            <Node pos="l" depth="3" NCoef="0" IVar="-1" Cut="0.0000000000000000e+00" cType="1" res="1.4331310056149960e-02" rms="4.1123288869857788e-01" purity="7.8440731763839722e-01" nType="-99"/>
            <Node pos="r" depth="3" NCoef="0" IVar="-1" Cut="0.0000000000000000e+00" cType="1" res="1.8879350274801254e-02" rms="2.3077343404293060e-01" purity="9.4355785846710205e-01" nType="-99"/>
          </Node>
        </Node>
      </Node>
    </BinaryTree>
    <BinaryTree type="DecisionTree" boostWeight="1.0000000000000000e+00" itree="2">
      <Node pos="s" depth="0" NCoef="0" IVar="16" Cut="-9.6157294511795044e-01" cType="1" res="2.9379436746239662e-02" rms="4.6832498908042908e-01" purity="5.0000000000000000e-01" nType="0">
        <Node pos="l" depth="1" NCoef="0" IVar="9" Cut="7.3930807113647461e+00" cType="1" res="-1.1074936389923096e-01" rms="4.4802665710449219e-01" purity="3.4071013331413269e-01" nType="0">
          <Node pos="l" depth="2" NCoef="0" IVar="10" Cut="3.2804970741271973e+00" cType="1" res="-1.6866762936115265e-01" rms="4.2469805479049683e-01" purity="2.7588847279548645e-01" nType="0">
            <Node pos="l" depth="3" NCoef="0" IVar="19" Cut="-4.7619047760963440e-01" cType="1" res="-2.0651264488697052e-01" rms="4.0376752614974976e-01" purity="2.3322258889675140e-01" nType="0">
              <Node pos="l" depth="4" NCoef="0" IVar="-1" Cut="0.0000000000000000e+00" cType="1" res="-9.4447799026966095e-02" rms="2.8983977437019348e-01" purity="9.3458496034145355e-02" nType="-99"/>
              <Node pos="r" depth="4" NCoef="0" IVar="-1" Cut="0.0000000000000000e+00" cType="1" res="-1.2071441859006882e-02" rms="4.5983082056045532e-01" purity="3.5252663493156433e-01" nType="-99"/>
            </Node>
            <Node pos="r" depth="3" NCoef="0" IVar="-1" Cut="0.0000000000000000e+00" cType="1" res="1.4077909290790558e-02" rms="4.1739755868911743e-01" purity="7.6573079824447632e-01" nType="-99"/>
          </Node>
          <Node pos="r" depth="2" NCoef="0" IVar="-1" Cut="0.0000000000000000e+00" cType="1" res="1.5509844757616520e-02" rms="3.8487330079078674e-01" purity="8.0977195501327515e-01" nType="-99"/>
        </Node>
        <Node pos="r" depth="1" NCoef="0" IVar="9" Cut="4.0527634620666504e+00" cType="1" res="3.5642075538635254e-01" rms="3.3159497380256653e-01" purity="8.7176066637039185e-01" nType="0">
          <Node pos="l" depth="2" NCoef="0" IVar="25" Cut="1.8666666030883789e+01" cType="1" res="2.4888350069522858e-01" rms="4.2477348446846008e-01" purity="7.5876331329345703e-01" nType="0">
            <Node pos="l" depth="3" NCoef="0" IVar="-1" Cut="0.0000000000000000e+00" cType="1" res="1.5860637649893761e-02" rms="3.6644873023033142e-01" purity="8.3884519338607788e-01" nType="-99"/>
            <Node pos="r" depth="3" NCoef="0" IVar="-1" Cut="0.0000000000000000e+00" cType="1" res="4.7299936413764954e-03" rms="4.9147260189056396e-01" purity="5.7187241315841675e-01" nType="-99"/>
          </Node>
          <Node pos="r" depth="2" NCoef="0" IVar="-1" Cut="0.0000000000000000e+00" cType="1" res="1.8551992252469063e-02" rms="2.2633613646030426e-01" purity="9.4580715894699097e-01" nType="-99"/>
        </Node>
      </Node>
    </BinaryTree>
    <BinaryTree type="DecisionTree" boostWeight="1.0000000000000000e+00" itree="3">
      <Node pos="s" depth="0" NCoef="0" IVar="16" Cut="-9.6157294511795044e-01" cType="1" res="3.9387676864862442e-02" rms="4.5714750885963440e-01" purity="5.0000000000000000e-01" nType="0">
        <Node pos="l" depth="1" NCoef="0" IVar="9" Cut="7.3930807113647461e+00" cType="1" res="-9.2996537685394287e-02" rms="4.3954163789749146e-01" purity="3.4071013331413269e-01" nType="0">
          <Node pos="l" depth="2" NCoef="0" IVar="10" Cut="3.2804970741271973e+00" cType="1" res="-1.4739297330379486e-01" rms="4.1839665174484253e-01" purity="2.7588847279548645e-01" nType="0">
            <Node pos="l" depth="3" NCoef="0" IVar="14" Cut="1.4711593091487885e-01" cType="1" res="-1.8277278542518616e-01" rms="3.9938184618949890e-01" purity="2.3322258889675140e-01" nType="0">
              <Node pos="l" depth="4" NCoef="0" IVar="-1" Cut="0.0000000000000000e+00" cType="1" res="-5.8405425399541855e-02" rms="3.3419114351272583e-01" purity="1.3797543942928314e-01" nType="-99"/>
              <Node pos="r" depth="4" NCoef="0" IVar="-1" Cut="0.0000000000000000e+00" cType="1" res="-7.0757353678345680e-03" rms="4.6730470657348633e-01" purity="3.8965326547622681e-01" nType="-99"/>
            </Node>
            <Node pos="r" depth="3" NCoef="0" IVar="-1" Cut="0.0000000000000000e+00" cType="1" res="1.3710961677134037e-02" rms="4.1739636659622192e-01" purity="7.6573079824447632e-01" nType="-99"/>
          </Node>
          <Node pos="r" depth="2" NCoef="0" IVar="-1" Cut="0.0000000000000000e+00" cType="1" res="1.5129566192626953e-02" rms="3.8486164808273315e-01" purity="8.0977195501327515e-01" nType="-99"/>
        </Node>
        <Node pos="r" depth="1" NCoef="0" IVar="9" Cut="4.0527634620666504e+00" cType="1" res="3.4835419058799744e-01" rms="3.3085638284683228e-01" purity="8.7176066637039185e-01" nType="0">
          <Node pos="l" depth="2" NCoef="0" IVar="25" Cut="1.8666666030883789e+01" cType="1" res="2.4263055622577667e-01" rms="4.2407166957855225e-01" purity="7.5876331329345703e-01" nType="0">
            <Node pos="l" depth="3" NCoef="0" IVar="-1" Cut="0.0000000000000000e+00" cType="1" res="1.5492383390665054e-02" rms="3.6644873023033142e-01" purity="8.3884519338607788e-01" nType="-99"/>
            <Node pos="r" depth="3" NCoef="0" IVar="-1" Cut="0.0000000000000000e+00" cType="1" res="4.5670554973185062e-03" rms="4.9147239327430725e-01" purity="5.7187241315841675e-01" nType="-99"/>
          </Node>
          <Node pos="r" depth="2" NCoef="0" IVar="-1" Cut="0.0000000000000000e+00" cType="1" res="1.8181543797254562e-02" rms="2.2633612155914307e-01" purity="9.4580715894699097e-01" nType="-99"/>
        </Node>
      </Node>
    </BinaryTree>
    <BinaryTree type="DecisionTree" boostWeight="1.0000000000000000e+00" itree="4">
      <Node pos="s" depth="0" NCoef="0" IVar="15" Cut="-9.2144799232482910e-01" cType="1" res="4.6293672174215317e-02" rms="4.4889000058174133e-01" purity="5.0000000000000000e-01" nType="0">
        <Node pos="l" depth="1" NCoef="0" IVar="9" Cut="7.3930807113647461e+00" cType="1" res="-7.9755023121833801e-02" rms="4.3378579616546631e-01" purity="3.4071013331413269e-01" nType="0">
          <Node pos="l" depth="2" NCoef="0" IVar="10" Cut="3.2804970741271973e+00" cType="1" res="-1.3127985596656799e-01" rms="4.1453638672828674e-01" purity="2.7588847279548645e-01" nType="0">
            <Node pos="l" depth="3" NCoef="0" IVar="14" Cut="3.2942318916320801e+00" cType="1" res="-1.6466024518013000e-01" rms="3.9714765548706055e-01" purity="2.3322258889675140e-01" nType="0">
              <Node pos="l" depth="4" NCoef="0" IVar="-1" Cut="0.0000000000000000e+00" cType="1" res="-4.0673833340406418e-02" rms="3.6228731274604797e-01" purity="1.7436693608760834e-01" nType="-99"/>
              <Node pos="r" depth="4" NCoef="0" IVar="-1" Cut="0.0000000000000000e+00" cType="1" res="-1.5606728848069906e-03" rms="4.7275492548942566e-01" purity="4.4101539254188538e-01" nType="-99"/>
            </Node>
            <Node pos="r" depth="3" NCoef="0" IVar="-1" Cut="0.0000000000000000e+00" cType="1" res="1.3358511030673981e-02" rms="4.1739737987518311e-01" purity="7.6573079824447632e-01" nType="-99"/>
          </Node>
          <Node pos="r" depth="2" NCoef="0" IVar="-1" Cut="0.0000000000000000e+00" cType="1" res="1.4765205793082714e-02" rms="3.8485333323478699e-01" purity="8.0977195501327515e-01" nType="-99"/>
        </Node>
        <Node pos="r" depth="1" NCoef="0" IVar="9" Cut="4.0527634620666504e+00" cType="1" res="3.4047397971153259e-01" rms="3.3014300465583801e-01" purity="8.7176066637039185e-01" nType="0">
          <Node pos="l" depth="2" NCoef="0" IVar="25" Cut="1.8666666030883789e+01" cType="1" res="2.3653775453567505e-01" rms="4.2339816689491272e-01" purity="7.5876331329345703e-01" nType="0">
            <Node pos="l" depth="3" NCoef="0" IVar="-1" Cut="0.0000000000000000e+00" cType="1" res="1.5139711089432240e-02" rms="3.6644926667213440e-01" purity="8.3884519338607788e-01" nType="-99"/>
            <Node pos="r" depth="3" NCoef="0" IVar="-1" Cut="0.0000000000000000e+00" cType="1" res="4.4098896905779839e-03" rms="4.9147233366966248e-01" purity="5.7187241315841675e-01" nType="-99"/>
          </Node>
          <Node pos="r" depth="2" NCoef="0" IVar="-1" Cut="0.0000000000000000e+00" cType="1" res="1.7829863354563713e-02" rms="2.2633613646030426e-01" purity="9.4580715894699097e-01" nType="-99"/>
        </Node>
      </Node>
    </BinaryTree>
    <BinaryTree type="DecisionTree" boostWeight="1.0000000000000000e+00" itree="5">
      <Node pos="s" depth="0" NCoef="0" IVar="15" Cut="-9.2144799232482910e-01" cType="1" res="5.1350478082895279e-02" rms="4.4227495789527893e-01" purity="5.0000000000000000e-01" nType="0">
        <Node pos="l" depth="1" NCoef="0" IVar="21" Cut="2.3562656402587891e+01" cType="1" res="-6.9232933223247528e-02" rms="4.2946198582649231e-01" purity="3.4071013331413269e-01" nType="0">
          <Node pos="l" depth="2" NCoef="0" IVar="21" Cut="4.5892996788024902e+00" cType="1" res="-1.1608425527811050e-01" rms="4.1219884157180786e-01" purity="2.8106456995010376e-01" nType="0">
            <Node pos="l" depth="3" NCoef="0" IVar="25" Cut="1.3809523582458496e+01" cType="1" res="-2.0459233224391937e-01" rms="3.4813624620437622e-01" purity="1.5925838053226471e-01" nType="0">
              <Node pos="l" depth="4" NCoef="0" IVar="-1" Cut="0.0000000000000000e+00" cType="1" res="-2.1357562392950058e-02" rms="3.9565896987915039e-01" purity="2.2558192908763885e-01" nType="-99"/>
              <Node pos="r" depth="4" NCoef="0" IVar="-1" Cut="0.0000000000000000e+00" cType="1" res="-6.5902300179004669e-02" rms="3.0618920922279358e-01" purity="1.1843094974756241e-01" nType="-99"/>
            </Node>
            <Node pos="r" depth="3" NCoef="0" IVar="9" Cut="2.6022760868072510e+00" cType="1" res="1.1611441522836685e-01" rms="4.7246915102005005e-01" purity="6.0061991214752197e-01" nType="0">
              <Node pos="l" depth="4" NCoef="0" IVar="-1" Cut="0.0000000000000000e+00" cType="1" res="1.7130597552750260e-04" rms="4.8816785216331482e-01" purity="4.6020603179931641e-01" nType="-99"/>
              <Node pos="r" depth="4" NCoef="0" IVar="-1" Cut="0.0000000000000000e+00" cType="1" res="1.2498968280851841e-02" rms="4.2845538258552551e-01" purity="7.3721385002136230e-01" nType="-99"/>
            </Node>
          </Node>
          <Node pos="r" depth="2" NCoef="0" IVar="-1" Cut="0.0000000000000000e+00" cType="1" res="1.5226034447550774e-02" rms="3.7841141223907471e-01" purity="8.1639713048934937e-01" nType="-99"/>
        </Node>
        <Node pos="r" depth="1" NCoef="0" IVar="9" Cut="4.0527634620666504e+00" cType="1" res="3.3277556300163269e-01" rms="3.2945412397384644e-01" purity="8.7176066637039185e-01" nType="0">
          <Node pos="l" depth="2" NCoef="0" IVar="25" Cut="1.8666666030883789e+01" cType="1" res="2.3060083389282227e-01" rms="4.2275190353393555e-01" purity="7.5876331329345703e-01" nType="0">
            <Node pos="l" depth="3" NCoef="0" IVar="-1" Cut="0.0000000000000000e+00" cType="1" res="1.4801452867686749e-02" rms="3.6645033955574036e-01" purity="8.3884519338607788e-01" nType="-99"/>
            <Node pos="r" depth="3" NCoef="0" IVar="-1" Cut="0.0000000000000000e+00" cType="1" res="4.2582694441080093e-03" rms="4.9147242307662964e-01" purity="5.7187241315841675e-01" nType="-99"/>
          </Node>
          <Node pos="r" depth="2" NCoef="0" IVar="-1" Cut="0.0000000000000000e+00" cType="1" res="1.7495460808277130e-02" rms="2.2633619606494904e-01" purity="9.4580715894699097e-01" nType="-99"/>
        </Node>
      </Node>
    </BinaryTree>
    <BinaryTree type="DecisionTree" boostWeight="1.0000000000000000e+00" itree="6">
      <Node pos="s" depth="0" NCoef="0" IVar="16" Cut="-9.6157294511795044e-01" cType="1" res="5.7833615690469742e-02" rms="4.3409264087677002e-01" purity="5.0000000000000000e-01" nType="0">
        <Node pos="l" depth="1" NCoef="0" IVar="9" Cut="7.3930807113647461e+00" cType="1" res="-5.6749381124973297e-02" rms="4.2318606376647949e-01" purity="3.4071013331413269e-01" nType="0">
          <Node pos="l" depth="2" NCoef="0" IVar="21" Cut="2.3562656402587891e+01" cType="1" res="-1.0425943881273270e-01" rms="4.0640416741371155e-01" purity="2.7588847279548645e-01" nType="0">
            <Node pos="l" depth="3" NCoef="0" IVar="21" Cut="5.8541831970214844e+00" cType="1" res="-1.3476057350635529e-01" rms="3.9030867815017700e-01" purity="2.3495824635028839e-01" nType="0">
              <Node pos="l" depth="4" NCoef="0" IVar="-1" Cut="0.0000000000000000e+00" cType="1" res="-4.4228121638298035e-02" rms="3.4129133820533752e-01" purity="1.4943960309028625e-01" nType="-99"/>
              <Node pos="r" depth="4" NCoef="0" IVar="-1" Cut="0.0000000000000000e+00" cType="1" res="7.0653138682246208e-03" rms="4.7959619760513306e-01" purity="5.8969151973724365e-01" nType="-99"/>
            </Node>
            <Node pos="r" depth="3" NCoef="0" IVar="-1" Cut="0.0000000000000000e+00" cType="1" res="1.3692678883671761e-02" rms="4.1923582553863525e-01" purity="7.5970780849456787e-01" nType="-99"/>
          </Node>
          <Node pos="r" depth="2" NCoef="0" IVar="-1" Cut="0.0000000000000000e+00" cType="1" res="1.4512024819850922e-02" rms="3.8118615746498108e-01" purity="8.0977195501327515e-01" nType="-99"/>
        </Node>
        <Node pos="r" depth="1" NCoef="0" IVar="9" Cut="4.0527634620666504e+00" cType="1" res="3.2525455951690674e-01" rms="3.2878896594047546e-01" purity="8.7176066637039185e-01" nType="0">
          <Node pos="l" depth="2" NCoef="0" IVar="25" Cut="1.8666666030883789e+01" cType="1" res="2.2481565177440643e-01" rms="4.2213183641433716e-01" purity="7.5876331329345703e-01" nType="0">
            <Node pos="l" depth="3" NCoef="0" IVar="-1" Cut="0.0000000000000000e+00" cType="1" res="1.4476554468274117e-02" rms="3.6645188927650452e-01" purity="8.3884519338607788e-01" nType="-99"/>
            <Node pos="r" depth="3" NCoef="0" IVar="-1" Cut="0.0000000000000000e+00" cType="1" res="4.1119777597486973e-03" rms="4.9147257208824158e-01" purity="5.7187241315841675e-01" nType="-99"/>
          </Node>
          <Node pos="r" depth="2" NCoef="0" IVar="-1" Cut="0.0000000000000000e+00" cType="1" res="1.7177002504467964e-02" rms="2.2633625566959381e-01" purity="9.4580715894699097e-01" nType="-99"/>
        </Node>
      </Node>
    </BinaryTree>
    <BinaryTree type="DecisionTree" boostWeight="1.0000000000000000e+00" itree="7">
      <Node pos="s" depth="0" NCoef="0" IVar="16" Cut="-9.6157294511795044e-01" cType="1" res="6.3100390136241913e-02" rms="4.2720270156860352e-01" purity="5.0000000000000000e-01" nType="0">
        <Node pos="l" depth="1" NCoef="0" IVar="9" Cut="7.3930807113647461e+00" cType="1" res="-4.6077553182840347e-02" rms="4.1811761260032654e-01" purity="3.4071013331413269e-01" nType="0">
          <Node pos="l" depth="2" NCoef="0" IVar="10" Cut="3.2804970741271973e+00" cType="1" res="-9.1118521988391876e-02" rms="4.0273293852806091e-01" purity="2.7588847279548645e-01" nType="0">
            <Node pos="l" depth="3" NCoef="0" IVar="25" Cut="1.5142857551574707e+01" cType="1" res="-1.2132956087589264e-01" rms="3.8774234056472778e-01" purity="2.3322258889675140e-01" nType="0">
              <Node pos="l" depth="4" NCoef="0" IVar="-1" Cut="0.0000000000000000e+00" cType="1" res="-7.2661056183278561e-03" rms="4.1854125261306763e-01" purity="3.0143398046493530e-01" nType="-99"/>
              <Node pos="r" depth="4" NCoef="0" IVar="-1" Cut="0.0000000000000000e+00" cType="1" res="-4.2074315249919891e-02" rms="3.3537283539772034e-01" purity="1.5680053830146790e-01" nType="-99"/>
            </Node>
            <Node pos="r" depth="3" NCoef="0" IVar="-1" Cut="0.0000000000000000e+00" cType="1" res="1.3631669804453850e-02" rms="4.0921309590339661e-01" purity="7.6573079824447632e-01" nType="-99"/>
          </Node>
          <Node pos="r" depth="2" NCoef="0" IVar="-1" Cut="0.0000000000000000e+00" cType="1" res="1.4174728654325008e-02" rms="3.8117933273315430e-01" purity="8.0977195501327515e-01" nType="-99"/>
        </Node>
        <Node pos="r" depth="1" NCoef="0" IVar="9" Cut="4.0527634620666504e+00" cType="1" res="3.1790667772293091e-01" rms="3.2814678549766541e-01" purity="8.7176066637039185e-01" nType="0">
          <Node pos="l" depth="2" NCoef="0" IVar="25" Cut="1.8666666030883789e+01" cType="1" res="2.1917815506458282e-01" rms="4.2153701186180115e-01" purity="7.5876331329345703e-01" nType="0">
            <Node pos="l" depth="3" NCoef="0" IVar="-1" Cut="0.0000000000000000e+00" cType="1" res="1.4164061285555363e-02" rms="3.6645388603210449e-01" purity="8.3884519338607788e-01" nType="-99"/>
            <Node pos="r" depth="3" NCoef="0" IVar="-1" Cut="0.0000000000000000e+00" cType="1" res="3.9708106778562069e-03" rms="4.9147287011146545e-01" purity="5.7187241315841675e-01" nType="-99"/>
          </Node>
          <Node pos="r" depth="2" NCoef="0" IVar="-1" Cut="0.0000000000000000e+00" cType="1" res="1.6873281449079514e-02" rms="2.2633637487888336e-01" purity="9.4580715894699097e-01" nType="-99"/>
        </Node>
      </Node>
    </BinaryTree>
    <BinaryTree type="DecisionTree" boostWeight="1.0000000000000000e+00" itree="8">
      <Node pos="s" depth="0" NCoef="0" IVar="16" Cut="-9.6157294511795044e-01" cType="1" res="6.5871506929397583e-02" rms="4.2230194807052612e-01" purity="5.0000000000000000e-01" nType="0">
        <Node pos="l" depth="1" NCoef="0" IVar="21" Cut="2.3562656402587891e+01" cType="1" res="-3.9043091237545013e-02" rms="4.1484022140502930e-01" purity="3.4071013331413269e-01" nType="0">
          <Node pos="l" depth="2" NCoef="0" IVar="21" Cut="4.5892996788024902e+00" cType="1" res="-8.0484196543693542e-02" rms="4.0067228674888611e-01" purity="2.8106456995010376e-01" nType="0">
            <Node pos="l" depth="3" NCoef="0" IVar="5" Cut="1.6793619155883789e+01" cType="1" res="-1.5634135901927948e-01" rms="3.4348791837692261e-01" purity="1.5925838053226471e-01" nType="0">
              <Node pos="l" depth="4" NCoef="0" IVar="-1" Cut="0.0000000000000000e+00" cType="1" res="-4.5200314372777939e-02" rms="3.2286623120307922e-01" purity="1.3505384325981140e-01" nType="-99"/>
              <Node pos="r" depth="4" NCoef="0" IVar="-1" Cut="0.0000000000000000e+00" cType="1" res="-5.8171604759991169e-03" rms="4.2083334922790527e-01" purity="2.9047402739524841e-01" nType="-99"/>
            </Node>
            <Node pos="r" depth="3" NCoef="0" IVar="9" Cut="2.6022760868072510e+00" cType="1" res="1.1852511763572693e-01" rms="4.6634483337402344e-01" purity="6.0061991214752197e-01" nType="0">
              <Node pos="l" depth="4" NCoef="0" IVar="-1" Cut="0.0000000000000000e+00" cType="1" res="1.2891532387584448e-03" rms="4.8496240377426147e-01" purity="4.6020603179931641e-01" nType="-99"/>
              <Node pos="r" depth="4" NCoef="0" IVar="-1" Cut="0.0000000000000000e+00" cType="1" res="1.2119180522859097e-02" rms="4.2394781112670898e-01" purity="7.3721385002136230e-01" nType="-99"/>
            </Node>
          </Node>
          <Node pos="r" depth="2" NCoef="0" IVar="-1" Cut="0.0000000000000000e+00" cType="1" res="1.4646176248788834e-02" rms="3.7591379880905151e-01" purity="8.1639713048934937e-01" nType="-99"/>
        </Node>
        <Node pos="r" depth="1" NCoef="0" IVar="9" Cut="4.0527634620666504e+00" cType="1" res="3.1072774529457092e-01" rms="3.2752689719200134e-01" purity="8.7176066637039185e-01" nType="0">
          <Node pos="l" depth="2" NCoef="0" IVar="25" Cut="1.8666666030883789e+01" cType="1" res="2.1368446946144104e-01" rms="4.2096644639968872e-01" purity="7.5876331329345703e-01" nType="0">
            <Node pos="l" depth="3" NCoef="0" IVar="-1" Cut="0.0000000000000000e+00" cType="1" res="1.3863108120858669e-02" rms="3.6645632982254028e-01" purity="8.3884519338607788e-01" nType="-99"/>
            <Node pos="r" depth="3" NCoef="0" IVar="-1" Cut="0.0000000000000000e+00" cType="1" res="3.8345716893672943e-03" rms="4.9147322773933411e-01" purity="5.7187241315841675e-01" nType="-99"/>
          </Node>
          <Node pos="r" depth="2" NCoef="0" IVar="-1" Cut="0.0000000000000000e+00" cType="1" res="1.6583204269409180e-02" rms="2.2633650898933411e-01" purity="9.4580715894699097e-01" nType="-99"/>
        </Node>
      </Node>
    </BinaryTree>
    <BinaryTree type="DecisionTree" boostWeight="1.0000000000000000e+00" itree="9">
      <Node pos="s" depth="0" NCoef="0" IVar="15" Cut="-9.2144799232482910e-01" cType="1" res="6.9907203316688538e-02" rms="4.1653123497962952e-01" purity="5.0000000000000000e-01" nType="0">
        <Node pos="l" depth="1" NCoef="0" IVar="9" Cut="7.3930807113647461e+00" cType="1" res="-3.0272869393229485e-02" rms="4.1058826446533203e-01" purity="3.4071013331413269e-01" nType="0">
          <Node pos="l" depth="2" NCoef="0" IVar="10" Cut="3.2804970741271973e+00" cType="1" res="-7.2103939950466156e-02" rms="3.9703911542892456e-01" purity="2.7588847279548645e-01" nType="0">
            <Node pos="l" depth="3" NCoef="0" IVar="14" Cut="-4.8230725526809692e-01" cType="1" res="-1.0024396330118179e-01" rms="3.8356333971023560e-01" purity="2.3322258889675140e-01" nType="0">
              <Node pos="l" depth="4" NCoef="0" IVar="-1" Cut="0.0000000000000000e+00" cType="1" res="-3.9282798767089844e-02" rms="3.2896301150321960e-01" purity="1.3796868920326233e-01" nType="-99"/>
              <Node pos="r" depth="4" NCoef="0" IVar="-1" Cut="0.0000000000000000e+00" cType="1" res="-1.8297351198270917e-03" rms="4.4744867086410522e-01" purity="3.8964715600013733e-01" nType="-99"/>
            </Node>
            <Node pos="r" depth="3" NCoef="0" IVar="-1" Cut="0.0000000000000000e+00" cType="1" res="1.3441976159811020e-02" rms="4.0613156557083130e-01" purity="7.6573079824447632e-01" nType="-99"/>
          </Node>
          <Node pos="r" depth="2" NCoef="0" IVar="-1" Cut="0.0000000000000000e+00" cType="1" res="1.3870915398001671e-02" rms="3.7878486514091492e-01" purity="8.0977195501327515e-01" nType="-99"/>
        </Node>
        <Node pos="r" depth="1" NCoef="0" IVar="9" Cut="4.0527634620666504e+00" cType="1" res="3.0371370911598206e-01" rms="3.2692855596542358e-01" purity="8.7176066637039185e-01" nType="0">
          <Node pos="l" depth="2" NCoef="0" IVar="25" Cut="1.8666666030883789e+01" cType="1" res="2.0833078026771545e-01" rms="4.2041921615600586e-01" purity="7.5876331329345703e-01" nType="0">
            <Node pos="l" depth="3" NCoef="0" IVar="-1" Cut="0.0000000000000000e+00" cType="1" res="1.3572907075285912e-02" rms="3.6645913124084473e-01" purity="8.3884519338607788e-01" nType="-99"/>
            <Node pos="r" depth="3" NCoef="0" IVar="-1" Cut="0.0000000000000000e+00" cType="1" res="3.7030756939202547e-03" rms="4.9147364497184753e-01" purity="5.7187241315841675e-01" nType="-99"/>
          </Node>
          <Node pos="r" depth="2" NCoef="0" IVar="-1" Cut="0.0000000000000000e+00" cType="1" res="1.6305783763527870e-02" rms="2.2633667290210724e-01" purity="9.4580715894699097e-01" nType="-99"/>
        </Node>
      </Node>
    </BinaryTree>
    <BinaryTree type="DecisionTree" boostWeight="1.0000000000000000e+00" itree="10">
      <Node pos="s" depth="0" NCoef="0" IVar="15" Cut="-9.2144799232482910e-01" cType="1" res="7.2573445737361908e-02" rms="4.1206493973731995e-01" purity="5.0000000000000000e-01" nType="0">
        <Node pos="l" depth="1" NCoef="0" IVar="21" Cut="2.3562656402587891e+01" cType="1" res="-2.3527853190898895e-02" rms="4.0758675336837769e-01" purity="3.4071013331413269e-01" nType="0">
          <Node pos="l" depth="2" NCoef="0" IVar="21" Cut="5.8541831970214844e+00" cType="1" res="-6.2027972191572189e-02" rms="3.9511501789093018e-01" purity="2.8106456995010376e-01" nType="0">
            <Node pos="l" depth="3" NCoef="0" IVar="10" Cut="1.6699117422103882e+00" cType="1" res="-1.2201090157032013e-01" rms="3.5340967774391174e-01" purity="1.7699411511421204e-01" nType="0">
              <Node pos="l" depth="4" NCoef="0" IVar="-1" Cut="0.0000000000000000e+00" cType="1" res="-5.1986321806907654e-02" rms="3.0178317427635193e-01" purity="1.0716462135314941e-01" nType="-99"/>
              <Node pos="r" depth="4" NCoef="0" IVar="-1" Cut="0.0000000000000000e+00" cType="1" res="-5.9354850091040134e-03" rms="4.3307694792747498e-01" purity="3.2257366180419922e-01" nType="-99"/>
            </Node>
            <Node pos="r" depth="3" NCoef="0" IVar="14" Cut="-4.9341252446174622e-01" cType="1" res="1.4691677689552307e-01" rms="4.5680189132690430e-01" purity="6.4358383417129517e-01" nType="0">
              <Node pos="l" depth="4" NCoef="0" IVar="-1" Cut="0.0000000000000000e+00" cType="1" res="-2.4453987134620547e-04" rms="4.7546830773353577e-01" purity="4.4993305206298828e-01" nType="-99"/>
              <Node pos="r" depth="4" NCoef="0" IVar="-1" Cut="0.0000000000000000e+00" cType="1" res="1.2087751179933548e-02" rms="4.2971676588058472e-01" purity="7.3570215702056885e-01" nType="-99"/>
            </Node>
          </Node>
          <Node pos="r" depth="2" NCoef="0" IVar="-1" Cut="0.0000000000000000e+00" cType="1" res="1.4312104322016239e-02" rms="3.7398967146873474e-01" purity="8.1639713048934937e-01" nType="-99"/>
        </Node>
        <Node pos="r" depth="1" NCoef="0" IVar="9" Cut="4.0527634620666504e+00" cType="1" res="2.9686063528060913e-01" rms="3.2635110616683960e-01" purity="8.7176066637039185e-01" nType="0">
          <Node pos="l" depth="2" NCoef="0" IVar="25" Cut="1.8666666030883789e+01" cType="1" res="2.0311339199542999e-01" rms="4.1989448666572571e-01" purity="7.5876331329345703e-01" nType="0">
            <Node pos="l" depth="3" NCoef="0" IVar="-1" Cut="0.0000000000000000e+00" cType="1" res="1.3292741961777210e-02" rms="3.6646229028701782e-01" purity="8.3884519338607788e-01" nType="-99"/>
            <Node pos="r" depth="3" NCoef="0" IVar="-1" Cut="0.0000000000000000e+00" cType="1" res="3.5761466715484858e-03" rms="4.9147418141365051e-01" purity="5.7187241315841675e-01" nType="-99"/>
          </Node>
          <Node pos="r" depth="2" NCoef="0" IVar="-1" Cut="0.0000000000000000e+00" cType="1" res="1.6040120273828506e-02" rms="2.2633686661720276e-01" purity="9.4580715894699097e-01" nType="-99"/>
        </Node>
      </Node>
    </BinaryTree>
    <BinaryTree type="DecisionTree" boostWeight="1.0000000000000000e+00" itree="11">
      <Node pos="s" depth="0" NCoef="0" IVar="21" Cut="2.3562656402587891e+01" cType="1" res="7.6211623847484589e-02" rms="4.0686365962028503e-01" purity="5.0000000000000000e-01" nType="0">
        <Node pos="l" depth="1" NCoef="0" IVar="21" Cut="5.8541831970214844e+00" cType="1" res="-4.7964000259526074e-05" rms="4.0711399912834167e-01" purity="3.8064157962799072e-01" nType="0">
          <Node pos="l" depth="2" NCoef="0" IVar="25" Cut="1.6571428298950195e+01" cType="1" res="-1.0716080665588379e-01" rms="3.6215069890022278e-01" purity="1.9482885301113129e-01" nType="0">
            <Node pos="l" depth="3" NCoef="0" IVar="10" Cut="1.6699117422103882e+00" cType="1" res="-6.1670012772083282e-02" rms="3.8930919766426086e-01" purity="2.3947426676750183e-01" nType="0">
              <Node pos="l" depth="4" NCoef="0" IVar="-1" Cut="0.0000000000000000e+00" cType="1" res="-3.1173493713140488e-02" rms="3.4161394834518433e-01" purity="1.4490036666393280e-01" nType="-99"/>
              <Node pos="r" depth="4" NCoef="0" IVar="-1" Cut="0.0000000000000000e+00" cType="1" res="5.2213110029697418e-03" rms="4.6059104800224304e-01" purity="4.6048897504806519e-01" nType="-99"/>
            </Node>
            <Node pos="r" depth="3" NCoef="0" IVar="10" Cut="2.4882197380065918e+00" cType="1" res="-1.6842615604400635e-01" rms="3.1165239214897156e-01" purity="1.3470202684402466e-01" nType="0">
              <Node pos="l" depth="4" NCoef="0" IVar="-1" Cut="0.0000000000000000e+00" cType="1" res="-7.4975594878196716e-02" rms="2.6785883307456970e-01" purity="8.2239970564842224e-02" nType="-99"/>
              <Node pos="r" depth="4" NCoef="0" IVar="-1" Cut="0.0000000000000000e+00" cType="1" res="1.7200225265696645e-03" rms="4.6310788393020630e-01" purity="4.6231818199157715e-01" nType="-99"/>
            </Node>
          </Node>
          <Node pos="r" depth="2" NCoef="0" IVar="14" Cut="-4.7214332222938538e-01" cType="1" res="2.1331059932708740e-01" rms="4.0775465965270996e-01" purity="7.5076299905776978e-01" nType="0">
            <Node pos="l" depth="3" NCoef="0" IVar="-1" Cut="0.0000000000000000e+00" cType="1" res="1.5240355860441923e-03" rms="4.7320923209190369e-01" purity="4.9034330248832703e-01" nType="-99"/>
            <Node pos="r" depth="3" NCoef="0" IVar="25" Cut="1.9809524536132812e+01" cType="1" res="2.6324403285980225e-01" rms="3.7317046523094177e-01" purity="8.1760084629058838e-01" nType="0">
              <Node pos="l" depth="4" NCoef="0" IVar="-1" Cut="0.0000000000000000e+00" cType="1" res="1.4432596042752266e-02" rms="3.4347531199455261e-01" purity="8.5303092002868652e-01" nType="-99"/>
              <Node pos="r" depth="4" NCoef="0" IVar="-1" Cut="0.0000000000000000e+00" cType="1" res="8.9073870331048965e-03" rms="4.4494155049324036e-01" purity="6.9261771440505981e-01" nType="-99"/>
            </Node>
          </Node>
        </Node>
        <Node pos="r" depth="1" NCoef="0" IVar="14" Cut="2.9527697563171387e+00" cType="1" res="3.3677959442138672e-01" rms="2.7762427926063538e-01" purity="9.0783035755157471e-01" nType="0">
          <Node pos="l" depth="2" NCoef="0" IVar="-1" Cut="0.0000000000000000e+00" cType="1" res="1.2481822632253170e-02" rms="3.9462745189666748e-01" purity="7.8199160099029541e-01" nType="-99"/>
          <Node pos="r" depth="2" NCoef="0" IVar="-1" Cut="0.0000000000000000e+00" cType="1" res="1.6374180093407631e-02" rms="2.2451923787593842e-01" purity="9.4431924819946289e-01" nType="-99"/>
        </Node>
      </Node>
    </BinaryTree>
    <BinaryTree type="DecisionTree" boostWeight="1.0000000000000000e+00" itree="12">
      <Node pos="s" depth="0" NCoef="0" IVar="21" Cut="2.3562656402587891e+01" cType="1" res="8.0559842288494110e-02" rms="4.0056473016738892e-01" purity="5.0000000000000000e-01" nType="0">
        <Node pos="l" depth="1" NCoef="0" IVar="21" Cut="5.8541831970214844e+00" cType="1" res="7.7763828448951244e-03" rms="4.0184327960014343e-01" purity="3.8064157962799072e-01" nType="0">
          <Node pos="l" depth="2" NCoef="0" IVar="5" Cut="1.6793619155883789e+01" cType="1" res="-9.2749416828155518e-02" rms="3.5932463407516479e-01" purity="1.9482885301113129e-01" nType="0">
            <Node pos="l" depth="3" NCoef="0" IVar="9" Cut="3.2445664405822754e+00" cType="1" res="-1.1355313658714294e-01" rms="3.4175178408622742e-01" purity="1.6723436117172241e-01" nType="0">
              <Node pos="l" depth="4" NCoef="0" IVar="-1" Cut="0.0000000000000000e+00" cType="1" res="-4.4750072062015533e-02" rms="3.0849519371986389e-01" purity="1.1581885069608688e-01" nType="-99"/>
              <Node pos="r" depth="4" NCoef="0" IVar="-1" Cut="0.0000000000000000e+00" cType="1" res="3.1446143984794617e-03" rms="4.5613709092140198e-01" purity="4.4621592760086060e-01" nType="-99"/>
            </Node>
            <Node pos="r" depth="3" NCoef="0" IVar="7" Cut="7.8093421936035156e+01" cType="1" res="1.7188252881169319e-02" rms="4.2408210039138794e-01" purity="3.4065237641334534e-01" nType="0">
              <Node pos="l" depth="4" NCoef="0" IVar="-1" Cut="0.0000000000000000e+00" cType="1" res="1.1309147812426090e-02" rms="4.4946780800819397e-01" purity="4.7818470001220703e-01" nType="-99"/>
              <Node pos="r" depth="4" NCoef="0" IVar="-1" Cut="0.0000000000000000e+00" cType="1" res="-3.0321847647428513e-02" rms="3.3702126145362854e-01" purity="1.5787456929683685e-01" nType="-99"/>
            </Node>
          </Node>
          <Node pos="r" depth="2" NCoef="0" IVar="14" Cut="-4.7214332222938538e-01" cType="1" res="2.0801419019699097e-01" rms="4.0708655118942261e-01" purity="7.5076299905776978e-01" nType="0">
            <Node pos="l" depth="3" NCoef="0" IVar="-1" Cut="0.0000000000000000e+00" cType="1" res="1.4635935658589005e-03" rms="4.7320789098739624e-01" purity="4.9034330248832703e-01" nType="-99"/>
            <Node pos="r" depth="3" NCoef="0" IVar="21" Cut="9.2271556854248047e+00" cType="1" res="2.5677919387817383e-01" rms="3.7301078438758850e-01" purity="8.1760084629058838e-01" nType="0">
              <Node pos="l" depth="4" NCoef="0" IVar="-1" Cut="0.0000000000000000e+00" cType="1" res="9.4078294932842255e-03" rms="4.3919679522514343e-01" purity="7.0970654487609863e-01" nType="-99"/>
              <Node pos="r" depth="4" NCoef="0" IVar="-1" Cut="0.0000000000000000e+00" cType="1" res="1.4317014254629612e-02" rms="3.3651885390281677e-01" purity="8.5981917381286621e-01" nType="-99"/>
            </Node>
          </Node>
        </Node>
        <Node pos="r" depth="1" NCoef="0" IVar="14" Cut="2.9527697563171387e+00" cType="1" res="3.2925036549568176e-01" rms="2.7748715877532959e-01" purity="9.0783035755157471e-01" nType="0">
          <Node pos="l" depth="2" NCoef="0" IVar="-1" Cut="0.0000000000000000e+00" cType="1" res="1.2194174341857433e-02" rms="3.9464673399925232e-01" purity="7.8199160099029541e-01" nType="-99"/>
          <Node pos="r" depth="2" NCoef="0" IVar="-1" Cut="0.0000000000000000e+00" cType="1" res="1.6106601804494858e-02" rms="2.2453007102012634e-01" purity="9.4431924819946289e-01" nType="-99"/>
        </Node>
      </Node>
    </BinaryTree>
    <BinaryTree type="DecisionTree" boostWeight="1.0000000000000000e+00" itree="13">
      <Node pos="s" depth="0" NCoef="0" IVar="15" Cut="-9.2144799232482910e-01" cType="1" res="8.3524987101554871e-02" rms="3.9554232358932495e-01" purity="5.0000000000000000e-01" nType="0">
        <Node pos="l" depth="1" NCoef="0" IVar="9" Cut="7.3930807113647461e+00" cType="1" res="-1.0802989127114415e-03" rms="3.9520364999771118e-01" purity="3.4071013331413269e-01" nType="0">
          <Node pos="l" depth="2" NCoef="0" IVar="10" Cut="3.2804970741271973e+00" cType="1" res="-3.6561258137226105e-02" rms="3.8477441668510437e-01" purity="2.7588847279548645e-01" nType="0">
            <Node pos="l" depth="3" NCoef="0" IVar="25" Cut="1.5142857551574707e+01" cType="1" res="-6.0136973857879639e-02" rms="3.7390407919883728e-01" purity="2.3322258889675140e-01" nType="0">
              <Node pos="l" depth="4" NCoef="0" IVar="-1" Cut="0.0000000000000000e+00" cType="1" res="-1.0383637854829431e-03" rms="4.0497907996177673e-01" purity="3.0143398046493530e-01" nType="-99"/>
              <Node pos="r" depth="4" NCoef="0" IVar="-1" Cut="0.0000000000000000e+00" cType="1" res="-2.8027299791574478e-02" rms="3.2578060030937195e-01" purity="1.5680053830146790e-01" nType="-99"/>
            </Node>
            <Node pos="r" depth="3" NCoef="0" IVar="-1" Cut="0.0000000000000000e+00" cType="1" res="1.2649131007492542e-02" rms="4.0384611487388611e-01" purity="7.6573079824447632e-01" nType="-99"/>
          </Node>
          <Node pos="r" depth="2" NCoef="0" IVar="-1" Cut="0.0000000000000000e+00" cType="1" res="1.3182811439037323e-02" rms="3.7419322133064270e-01" purity="8.0977195501327515e-01" nType="-99"/>
        </Node>
        <Node pos="r" depth="1" NCoef="0" IVar="2" Cut="2.5227253437042236e+00" cType="1" res="2.8098207712173462e-01" rms="3.1840777397155762e-01" purity="8.7176066637039185e-01" nType="0">
          <Node pos="l" depth="2" NCoef="0" IVar="25" Cut="1.8333333969116211e+01" cType="1" res="2.0631036162376404e-01" rms="3.8646113872528076e-01" purity="7.9048460721969604e-01" nType="0">
            <Node pos="l" depth="3" NCoef="0" IVar="-1" Cut="0.0000000000000000e+00" cType="1" res="1.3102772645652294e-02" rms="3.3632668852806091e-01" purity="8.6097860336303711e-01" nType="-99"/>
            <Node pos="r" depth="3" NCoef="0" IVar="-1" Cut="0.0000000000000000e+00" cType="1" res="1.8116075079888105e-03" rms="4.6614506840705872e-01" purity="5.7402157783508301e-01" nType="-99"/>
          </Node>
          <Node pos="r" depth="2" NCoef="0" IVar="-1" Cut="0.0000000000000000e+00" cType="1" res="1.5721160918474197e-02" rms="2.2412361204624176e-01" purity="9.4291770458221436e-01" nType="-99"/>
        </Node>
      </Node>
    </BinaryTree>
    <BinaryTree type="DecisionTree" boostWeight="1.0000000000000000e+00" itree="14">
      <Node pos="s" depth="0" NCoef="0" IVar="21" Cut="2.3562656402587891e+01" cType="1" res="8.3658248186111450e-02" rms="3.9277708530426025e-01" purity="5.0000000000000000e-01" nType="0">
        <Node pos="l" depth="1" NCoef="0" IVar="21" Cut="7.1190667152404785e+00" cType="1" res="1.5237489715218544e-02" rms="3.9552998542785645e-01" purity="3.8064157962799072e-01" nType="0">
          <Node pos="l" depth="2" NCoef="0" IVar="9" Cut="6.6647930145263672e+00" cType="1" res="-6.9601193070411682e-02" rms="3.6526933312416077e-01" purity="2.1822248399257660e-01" nType="0">
            <Node pos="l" depth="3" NCoef="0" IVar="10" Cut="2.6217679977416992e+00" cType="1" res="-8.9323014020919800e-02" rms="3.5121619701385498e-01" purity="1.8154186010360718e-01" nType="0">
              <Node pos="l" depth="4" NCoef="0" IVar="-1" Cut="0.0000000000000000e+00" cType="1" res="-2.9633380472660065e-02" rms="3.3173358440399170e-01" purity="1.4448334276676178e-01" nType="-99"/>
              <Node pos="r" depth="4" NCoef="0" IVar="-1" Cut="0.0000000000000000e+00" cType="1" res="8.1343110650777817e-03" rms="4.6328693628311157e-01" purity="5.5802285671234131e-01" nType="-99"/>
            </Node>
            <Node pos="r" depth="3" NCoef="0" IVar="-1" Cut="0.0000000000000000e+00" cType="1" res="1.0806479491293430e-02" rms="4.4003844261169434e-01" purity="6.8176633119583130e-01" nType="-99"/>
          </Node>
          <Node pos="r" depth="2" NCoef="0" IVar="14" Cut="-4.9341252446174622e-01" cType="1" res="2.2104026377201080e-01" rms="3.9048290252685547e-01" purity="7.7464008331298828e-01" nType="0">
            <Node pos="l" depth="3" NCoef="0" IVar="-1" Cut="0.0000000000000000e+00" cType="1" res="3.0243804212659597e-03" rms="4.6988451480865479e-01" purity="5.1334530115127563e-01" nType="-99"/>
            <Node pos="r" depth="3" NCoef="0" IVar="25" Cut="1.7333333969116211e+01" cType="1" res="2.6579925417900085e-01" rms="3.5432401299476624e-01" purity="8.3876144886016846e-01" nType="0">
              <Node pos="l" depth="4" NCoef="0" IVar="-1" Cut="0.0000000000000000e+00" cType="1" res="1.4537959359586239e-02" rms="3.1456473469734192e-01" purity="8.8100564479827881e-01" nType="-99"/>
              <Node pos="r" depth="4" NCoef="0" IVar="-1" Cut="0.0000000000000000e+00" cType="1" res="1.0633235797286034e-02" rms="4.1305875778198242e-01" purity="7.5418519973754883e-01" nType="-99"/>
            </Node>
          </Node>
        </Node>
        <Node pos="r" depth="1" NCoef="0" IVar="14" Cut="2.9527697563171387e+00" cType="1" res="3.1744205951690674e-01" rms="2.7605855464935303e-01" purity="9.0783035755157471e-01" nType="0">
          <Node pos="l" depth="2" NCoef="0" IVar="-1" Cut="0.0000000000000000e+00" cType="1" res="1.1850434355437756e-02" rms="3.9252620935440063e-01" purity="7.8199160099029541e-01" nType="-99"/>
          <Node pos="r" depth="2" NCoef="0" IVar="-1" Cut="0.0000000000000000e+00" cType="1" res="1.5699550509452820e-02" rms="2.2394172847270966e-01" purity="9.4431924819946289e-01" nType="-99"/>
        </Node>
      </Node>
    </BinaryTree>
    <BinaryTree type="DecisionTree" boostWeight="1.0000000000000000e+00" itree="15">
      <Node pos="s" depth="0" NCoef="0" IVar="21" Cut="2.3562656402587891e+01" cType="1" res="8.5277110338211060e-02" rms="3.8891965150833130e-01" purity="5.0000000000000000e-01" nType="0">
        <Node pos="l" depth="1" NCoef="0" IVar="21" Cut="4.5892996788024902e+00" cType="1" res="1.9407011568546295e-02" rms="3.9252802729606628e-01" purity="3.8064157962799072e-01" nType="0">
          <Node pos="l" depth="2" NCoef="0" IVar="25" Cut="1.3809523582458496e+01" cType="1" res="-8.1918790936470032e-02" rms="3.4151539206504822e-01" purity="1.6879619657993317e-01" nType="0">
            <Node pos="l" depth="3" NCoef="0" IVar="10" Cut="1.3936258554458618e+00" cType="1" res="-2.8876934200525284e-02" rms="3.8755097985267639e-01" purity="2.3309278488159180e-01" nType="0">
              <Node pos="l" depth="4" NCoef="0" IVar="-1" Cut="0.0000000000000000e+00" cType="1" res="-2.4784153327345848e-02" rms="3.4019473195075989e-01" purity="1.3875825703144073e-01" nType="-99"/>
              <Node pos="r" depth="4" NCoef="0" IVar="-1" Cut="0.0000000000000000e+00" cType="1" res="5.4503986611962318e-03" rms="4.4284361600875854e-01" purity="3.8637134432792664e-01" nType="-99"/>
            </Node>
            <Node pos="r" depth="3" NCoef="0" IVar="9" Cut="4.3672204017639160e+00" cType="1" res="-1.1335664987564087e-01" rms="3.0673137307167053e-01" purity="1.3068768382072449e-01" nType="0">
              <Node pos="l" depth="4" NCoef="0" IVar="-1" Cut="0.0000000000000000e+00" cType="1" res="-5.1758605986833572e-02" rms="2.7858278155326843e-01" purity="9.2377923429012299e-02" nType="-99"/>
              <Node pos="r" depth="4" NCoef="0" IVar="-1" Cut="0.0000000000000000e+00" cType="1" res="3.4393074456602335e-03" rms="4.6130236983299255e-01" purity="4.6758449077606201e-01" nType="-99"/>
            </Node>
          </Node>
          <Node pos="r" depth="2" NCoef="0" IVar="14" Cut="-4.6581491827964783e-01" cType="1" res="1.7714661359786987e-01" rms="4.1413390636444092e-01" purity="7.1043330430984497e-01" nType="0">
            <Node pos="l" depth="3" NCoef="0" IVar="25" Cut="1.5142857551574707e+01" cType="1" res="1.3249085284769535e-02" rms="4.6450105309486389e-01" purity="4.6023324131965637e-01" nType="0">
              <Node pos="l" depth="4" NCoef="0" IVar="-1" Cut="0.0000000000000000e+00" cType="1" res="8.2703679800033569e-03" rms="4.6355456113815308e-01" purity="5.7924091815948486e-01" nType="-99"/>
              <Node pos="r" depth="4" NCoef="0" IVar="-1" Cut="0.0000000000000000e+00" cType="1" res="-1.5998920425772667e-02" rms="4.2812368273735046e-01" purity="3.0076354742050171e-01" nType="-99"/>
            </Node>
            <Node pos="r" depth="3" NCoef="0" IVar="21" Cut="8.2031869888305664e+00" cType="1" res="2.2096024453639984e-01" rms="3.8804134726524353e-01" purity="7.7731764316558838e-01" nType="0">
              <Node pos="l" depth="4" NCoef="0" IVar="-1" Cut="0.0000000000000000e+00" cType="1" res="7.7025126665830612e-03" rms="4.5260885357856750e-01" purity="6.1761265993118286e-01" nType="-99"/>
              <Node pos="r" depth="4" NCoef="0" IVar="-1" Cut="0.0000000000000000e+00" cType="1" res="1.3439517468214035e-02" rms="3.4355562925338745e-01" purity="8.5094290971755981e-01" nType="-99"/>
            </Node>
          </Node>
        </Node>
        <Node pos="r" depth="1" NCoef="0" IVar="14" Cut="2.9527697563171387e+00" cType="1" res="3.1034567952156067e-01" rms="2.7593961358070374e-01" purity="9.0783035755157471e-01" nType="0">
          <Node pos="l" depth="2" NCoef="0" IVar="-1" Cut="0.0000000000000000e+00" cType="1" res="1.1583510786294937e-02" rms="3.9255315065383911e-01" purity="7.8199160099029541e-01" nType="-99"/>
          <Node pos="r" depth="2" NCoef="0" IVar="-1" Cut="0.0000000000000000e+00" cType="1" res="1.5459611080586910e-02" rms="2.2395558655261993e-01" purity="9.4431924819946289e-01" nType="-99"/>
        </Node>
      </Node>
    </BinaryTree>
    <BinaryTree type="DecisionTree" boostWeight="1.0000000000000000e+00" itree="16">
      <Node pos="s" depth="0" NCoef="0" IVar="21" Cut="2.3562656402587891e+01" cType="1" res="8.7541192770004272e-02" rms="3.8461637496948242e-01" purity="5.0000000000000000e-01" nType="0">
        <Node pos="l" depth="1" NCoef="0" IVar="21" Cut="7.1190667152404785e+00" cType="1" res="2.4363992735743523e-02" rms="3.8900971412658691e-01" purity="3.8064157962799072e-01" nType="0">
          <Node pos="l" depth="2" NCoef="0" IVar="9" Cut="6.6647930145263672e+00" cType="1" res="-5.2493706345558167e-02" rms="3.6210343241691589e-01" purity="2.1822248399257660e-01" nType="0">
            <Node pos="l" depth="3" NCoef="0" IVar="10" Cut="2.6217679977416992e+00" cType="1" res="-7.0292897522449493e-02" rms="3.4910488128662109e-01" purity="1.8154186010360718e-01" nType="0">
              <Node pos="l" depth="4" NCoef="0" IVar="-1" Cut="0.0000000000000000e+00" cType="1" res="-2.4987580254673958e-02" rms="3.3072453737258911e-01" purity="1.4448334276676178e-01" nType="-99"/>
              <Node pos="r" depth="4" NCoef="0" IVar="-1" Cut="0.0000000000000000e+00" cType="1" res="8.2772290334105492e-03" rms="4.6072298288345337e-01" purity="5.5802285671234131e-01" nType="-99"/>
            </Node>
            <Node pos="r" depth="3" NCoef="0" IVar="-1" Cut="0.0000000000000000e+00" cType="1" res="1.0396815836429596e-02" rms="4.3971329927444458e-01" purity="6.8176633119583130e-01" nType="-99"/>
          </Node>
          <Node pos="r" depth="2" NCoef="0" IVar="14" Cut="-4.9341252446174622e-01" cType="1" res="2.1080639958381653e-01" rms="3.8892564177513123e-01" purity="7.7464008331298828e-01" nType="0">
            <Node pos="l" depth="3" NCoef="0" IVar="-1" Cut="0.0000000000000000e+00" cType="1" res="2.9781749472022057e-03" rms="4.6831601858139038e-01" purity="5.1334530115127563e-01" nType="-99"/>
            <Node pos="r" depth="3" NCoef="0" IVar="25" Cut="1.7333333969116211e+01" cType="1" res="2.5320273637771606e-01" rms="3.5417518019676208e-01" purity="8.3876144886016846e-01" nType="0">
              <Node pos="l" depth="4" NCoef="0" IVar="-1" Cut="0.0000000000000000e+00" cType="1" res="1.4039408415555954e-02" rms="3.1454345583915710e-01" purity="8.8100564479827881e-01" nType="-99"/>
              <Node pos="r" depth="4" NCoef="0" IVar="-1" Cut="0.0000000000000000e+00" cType="1" res="1.0077377781271935e-02" rms="4.1303366422653198e-01" purity="7.5418519973754883e-01" nType="-99"/>
            </Node>
          </Node>
        </Node>
        <Node pos="r" depth="1" NCoef="0" IVar="14" Cut="2.9527697563171387e+00" cType="1" res="3.0340853333473206e-01" rms="2.7582582831382751e-01" purity="9.0783035755157471e-01" nType="0">
          <Node pos="l" depth="2" NCoef="0" IVar="-1" Cut="0.0000000000000000e+00" cType="1" res="1.1324441991746426e-02" rms="3.9258372783660889e-01" purity="7.8199160099029541e-01" nType="-99"/>
          <Node pos="r" depth="2" NCoef="0" IVar="-1" Cut="0.0000000000000000e+00" cType="1" res="1.5228765085339546e-02" rms="2.2397081553936005e-01" purity="9.4431924819946289e-01" nType="-99"/>
        </Node>
      </Node>
    </BinaryTree>
    <BinaryTree type="DecisionTree" boostWeight="1.0000000000000000e+00" itree="17">
      <Node pos="s" depth="0" NCoef="0" IVar="15" Cut="-9.2144799232482910e-01" cType="1" res="8.8295862078666687e-02" rms="3.8153240084648132e-01" purity="5.0000000000000000e-01" nType="0">
        <Node pos="l" depth="1" NCoef="0" IVar="9" Cut="7.3930807113647461e+00" cType="1" res="1.4355184510350227e-02" rms="3.8532984256744385e-01" purity="3.4071013331413269e-01" nType="0">
          <Node pos="l" depth="2" NCoef="0" IVar="10" Cut="3.2804970741271973e+00" cType="1" res="-1.5918504446744919e-02" rms="3.7708571553230286e-01" purity="2.7588847279548645e-01" nType="0">
            <Node pos="l" depth="3" NCoef="0" IVar="25" Cut="1.7666666030883789e+01" cType="1" res="-3.6144278943538666e-02" rms="3.6803388595581055e-01" purity="2.3322258889675140e-01" nType="0">
              <Node pos="l" depth="4" NCoef="0" IVar="-1" Cut="0.0000000000000000e+00" cType="1" res="-1.9266863819211721e-04" rms="3.9117625355720520e-01" purity="2.8341606259346008e-01" nType="-99"/>
              <Node pos="r" depth="4" NCoef="0" IVar="-1" Cut="0.0000000000000000e+00" cType="1" res="-2.8768204152584076e-02" rms="3.0756455659866333e-01" purity="1.3618607819080353e-01" nType="-99"/>
            </Node>
            <Node pos="r" depth="3" NCoef="0" IVar="-1" Cut="0.0000000000000000e+00" cType="1" res="1.1826042085886002e-02" rms="4.0126135945320129e-01" purity="7.6573079824447632e-01" nType="-99"/>
          </Node>
          <Node pos="r" depth="2" NCoef="0" IVar="-1" Cut="0.0000000000000000e+00" cType="1" res="1.2226047925651073e-02" rms="3.7328276038169861e-01" purity="8.0977195501327515e-01" nType="-99"/>
        </Node>
        <Node pos="r" depth="1" NCoef="0" IVar="2" Cut="2.5227253437042236e+00" cType="1" res="2.6086324453353882e-01" rms="3.1021162867546082e-01" purity="8.7176066637039185e-01" nType="0">
          <Node pos="l" depth="2" NCoef="0" IVar="25" Cut="1.8333333969116211e+01" cType="1" res="1.9085285067558289e-01" rms="3.7580573558807373e-01" purity="7.9048460721969604e-01" nType="0">
            <Node pos="l" depth="3" NCoef="0" IVar="-1" Cut="0.0000000000000000e+00" cType="1" res="1.2414966709911823e-02" rms="3.2855114340782166e-01" purity="8.6097860336303711e-01" nType="-99"/>
            <Node pos="r" depth="3" NCoef="0" IVar="-1" Cut="0.0000000000000000e+00" cType="1" res="1.6633713385090232e-03" rms="4.5401790738105774e-01" purity="5.7402157783508301e-01" nType="-99"/>
          </Node>
          <Node pos="r" depth="2" NCoef="0" IVar="-1" Cut="0.0000000000000000e+00" cType="1" res="1.4993943274021149e-02" rms="2.2087723016738892e-01" purity="9.4291770458221436e-01" nType="-99"/>
        </Node>
      </Node>
    </BinaryTree>
    <BinaryTree type="DecisionTree" boostWeight="1.0000000000000000e+00" itree="18">
      <Node pos="s" depth="0" NCoef="0" IVar="21" Cut="2.3562656402587891e+01" cType="1" res="8.7608993053436279e-02" rms="3.7946754693984985e-01" purity="5.0000000000000000e-01" nType="0">
        <Node pos="l" depth="1" NCoef="0" IVar="21" Cut="4.5892996788024902e+00" cType="1" res="2.7709202840924263e-02" rms="3.8498327136039734e-01" purity="3.8064157962799072e-01" nType="0">
          <Node pos="l" depth="2" NCoef="0" IVar="5" Cut="1.6793619155883789e+01" cType="1" res="-6.2923625111579895e-02" rms="3.3853796124458313e-01" purity="1.6879619657993317e-01" nType="0">
            <Node pos="l" depth="3" NCoef="0" IVar="9" Cut="3.2445664405822754e+00" cType="1" res="-7.9222433269023895e-02" rms="3.2151174545288086e-01" purity="1.4352816343307495e-01" nType="0">
              <Node pos="l" depth="4" NCoef="0" IVar="-1" Cut="0.0000000000000000e+00" cType="1" res="-3.9469335228204727e-02" rms="2.9256796836853027e-01" purity="1.0009118914604187e-01" nType="-99"/>
              <Node pos="r" depth="4" NCoef="0" IVar="-1" Cut="0.0000000000000000e+00" cType="1" res="1.7602340085431933e-03" rms="4.4766831398010254e-01" purity="4.0741333365440369e-01" nType="-99"/>
            </Node>
            <Node pos="r" depth="3" NCoef="0" IVar="7" Cut="7.8093421936035156e+01" cType="1" res="2.5197537615895271e-02" rms="4.0763521194458008e-01" purity="3.0541038513183594e-01" nType="0">
              <Node pos="l" depth="4" NCoef="0" IVar="-1" Cut="0.0000000000000000e+00" cType="1" res="1.2618150562047958e-02" rms="4.4184088706970215e-01" purity="4.3866071105003357e-01" nType="-99"/>
              <Node pos="r" depth="4" NCoef="0" IVar="-1" Cut="0.0000000000000000e+00" cType="1" res="-2.7272624894976616e-02" rms="3.2157820463180542e-01" purity="1.4108510315418243e-01" nType="-99"/>
            </Node>
          </Node>
          <Node pos="r" depth="2" NCoef="0" IVar="14" Cut="2.7392957210540771e+00" cType="1" res="1.6880244016647339e-01" rms="4.0967142581939697e-01" purity="7.1043330430984497e-01" nType="0">
            <Node pos="l" depth="3" NCoef="0" IVar="25" Cut="1.7666666030883789e+01" cType="1" res="6.1886966228485107e-02" rms="4.5610731840133667e-01" purity="5.4407757520675659e-01" nType="0">
              <Node pos="l" depth="4" NCoef="0" IVar="-1" Cut="0.0000000000000000e+00" cType="1" res="8.3610164001584053e-03" rms="4.4967672228813171e-01" purity="6.1441761255264282e-01" nType="-99"/>
              <Node pos="r" depth="4" NCoef="0" IVar="-1" Cut="0.0000000000000000e+00" cType="1" res="-3.1510961707681417e-03" rms="4.4941279292106628e-01" purity="4.3504804372787476e-01" nType="-99"/>
            </Node>
            <Node pos="r" depth="3" NCoef="0" IVar="21" Cut="8.2031869888305664e+00" cType="1" res="2.2731553018093109e-01" rms="3.6898288130760193e-01" purity="8.0147713422775269e-01" nType="0">
              <Node pos="l" depth="4" NCoef="0" IVar="-1" Cut="0.0000000000000000e+00" cType="1" res="8.3548156544566154e-03" rms="4.4377151131629944e-01" purity="6.3862156867980957e-01" nType="-99"/>
              <Node pos="r" depth="4" NCoef="0" IVar="-1" Cut="0.0000000000000000e+00" cType="1" res="1.3376357965171337e-02" rms="3.2236975431442261e-01" purity="8.7153559923171997e-01" nType="-99"/>
            </Node>
          </Node>
        </Node>
        <Node pos="r" depth="1" NCoef="0" IVar="14" Cut="2.9527697563171387e+00" cType="1" res="2.9227790236473083e-01" rms="2.7466249465942383e-01" purity="9.0783035755157471e-01" nType="0">
          <Node pos="l" depth="2" NCoef="0" IVar="-1" Cut="0.0000000000000000e+00" cType="1" res="1.0994603857398033e-02" rms="3.9083862304687500e-01" purity="7.8199160099029541e-01" nType="-99"/>
          <Node pos="r" depth="2" NCoef="0" IVar="-1" Cut="0.0000000000000000e+00" cType="1" res="1.4870374463498592e-02" rms="2.2351506352424622e-01" purity="9.4431924819946289e-01" nType="-99"/>
        </Node>
      </Node>
    </BinaryTree>
    <BinaryTree type="DecisionTree" boostWeight="1.0000000000000000e+00" itree="19">
      <Node pos="s" depth="0" NCoef="0" IVar="21" Cut="2.3562656402587891e+01" cType="1" res="8.8887006044387817e-02" rms="3.7614598870277405e-01" purity="5.0000000000000000e-01" nType="0">
        <Node pos="l" depth="1" NCoef="0" IVar="10" Cut="4.1916656494140625e+00" cType="1" res="3.1273424625396729e-02" rms="3.8232213258743286e-01" purity="3.8064157962799072e-01" nType="0">
          <Node pos="l" depth="2" NCoef="0" IVar="3" Cut="1.2008716583251953e+01" cType="1" res="-1.4476391486823559e-02" rms="3.7746173143386841e-01" purity="2.9085376858711243e-01" nType="0">
            <Node pos="l" depth="3" NCoef="0" IVar="21" Cut="8.3839502334594727e+00" cType="1" res="-3.9204958826303482e-02" rms="3.6540272831916809e-01" purity="2.5586134195327759e-01" nType="0">
              <Node pos="l" depth="4" NCoef="0" IVar="-1" Cut="0.0000000000000000e+00" cType="1" res="-1.8699562177062035e-02" rms="3.3695244789123535e-01" purity="1.6538240015506744e-01" nType="-99"/>
              <Node pos="r" depth="4" NCoef="0" IVar="-1" Cut="0.0000000000000000e+00" cType="1" res="7.8036300837993622e-03" rms="4.3890818953514099e-01" purity="6.7344254255294800e-01" nType="-99"/>
            </Node>
            <Node pos="r" depth="3" NCoef="0" IVar="-1" Cut="0.0000000000000000e+00" cType="1" res="1.8450278788805008e-02" rms="3.8307875394821167e-01" purity="7.4984771013259888e-01" nType="-99"/>
          </Node>
          <Node pos="r" depth="2" NCoef="0" IVar="-1" Cut="0.0000000000000000e+00" cType="1" res="1.4220053330063820e-02" rms="2.9428812861442566e-01" purity="8.9516907930374146e-01" nType="-99"/>
        </Node>
        <Node pos="r" depth="1" NCoef="0" IVar="14" Cut="2.9527697563171387e+00" cType="1" res="2.8574427962303162e-01" rms="2.7456411719322205e-01" purity="9.0783035755157471e-01" nType="0">
          <Node pos="l" depth="2" NCoef="0" IVar="-1" Cut="0.0000000000000000e+00" cType="1" res="1.0752897709608078e-02" rms="3.9087608456611633e-01" purity="7.8199160099029541e-01" nType="-99"/>
          <Node pos="r" depth="2" NCoef="0" IVar="-1" Cut="0.0000000000000000e+00" cType="1" res="1.4661186374723911e-02" rms="2.2353269159793854e-01" purity="9.4431924819946289e-01" nType="-99"/>
        </Node>
      </Node>
    </BinaryTree>
    <BinaryTree type="DecisionTree" boostWeight="1.0000000000000000e+00" itree="20">
      <Node pos="s" depth="0" NCoef="0" IVar="21" Cut="2.3562656402587891e+01" cType="1" res="8.8973961770534515e-02" rms="3.7343358993530273e-01" purity="5.0000000000000000e-01" nType="0">
        <Node pos="l" depth="1" NCoef="0" IVar="10" Cut="4.1916656494140625e+00" cType="1" res="3.3255171030759811e-02" rms="3.8013890385627747e-01" purity="3.8064157962799072e-01" nType="0">
          <Node pos="l" depth="2" NCoef="0" IVar="3" Cut="1.2008716583251953e+01" cType="1" res="-1.0978844948112965e-02" rms="3.7608256936073303e-01" purity="2.9085376858711243e-01" nType="0">
            <Node pos="l" depth="3" NCoef="0" IVar="21" Cut="8.3839502334594727e+00" cType="1" res="-3.4830071032047272e-02" rms="3.6470994353294373e-01" purity="2.5586134195327759e-01" nType="0">
              <Node pos="l" depth="4" NCoef="0" IVar="-1" Cut="0.0000000000000000e+00" cType="1" res="-1.7339151352643967e-02" rms="3.3705931901931763e-01" purity="1.6538240015506744e-01" nType="-99"/>
              <Node pos="r" depth="4" NCoef="0" IVar="-1" Cut="0.0000000000000000e+00" cType="1" res="7.5874049216508865e-03" rms="4.3891978263854980e-01" purity="6.7344254255294800e-01" nType="-99"/>
            </Node>
            <Node pos="r" depth="3" NCoef="0" IVar="-1" Cut="0.0000000000000000e+00" cType="1" res="1.7977740615606308e-02" rms="3.8289013504981995e-01" purity="7.4984771013259888e-01" nType="-99"/>
          </Node>
          <Node pos="r" depth="2" NCoef="0" IVar="-1" Cut="0.0000000000000000e+00" cType="1" res="1.3981495983898640e-02" rms="2.9430919885635376e-01" purity="8.9516907930374146e-01" nType="-99"/>
        </Node>
        <Node pos="r" depth="1" NCoef="0" IVar="14" Cut="2.9527697563171387e+00" cType="1" res="2.7935698628425598e-01" rms="2.7447026968002319e-01" purity="9.0783035755157471e-01" nType="0">
          <Node pos="l" depth="2" NCoef="0" IVar="-1" Cut="0.0000000000000000e+00" cType="1" res="1.0517667979001999e-02" rms="3.9091658592224121e-01" purity="7.8199160099029541e-01" nType="-99"/>
          <Node pos="r" depth="2" NCoef="0" IVar="-1" Cut="0.0000000000000000e+00" cType="1" res="1.4459109865128994e-02" rms="2.2355154156684875e-01" purity="9.4431924819946289e-01" nType="-99"/>
        </Node>
      </Node>
    </BinaryTree>
    <BinaryTree type="DecisionTree" boostWeight="1.0000000000000000e+00" itree="21">
      <Node pos="s" depth="0" NCoef="0" IVar="15" Cut="-9.2144799232482910e-01" cType="1" res="8.8860079646110535e-02" rms="3.7094995379447937e-01" purity="5.0000000000000000e-01" nType="0">
        <Node pos="l" depth="1" NCoef="0" IVar="9" Cut="7.3930807113647461e+00" cType="1" res="2.3253569379448891e-02" rms="3.7770631909370422e-01" purity="3.4071013331413269e-01" nType="0">
          <Node pos="l" depth="2" NCoef="0" IVar="10" Cut="3.2804970741271973e+00" cType="1" res="-3.1402157619595528e-03" rms="3.7120959162712097e-01" purity="2.7588847279548645e-01" nType="0">
            <Node pos="l" depth="3" NCoef="0" IVar="25" Cut="1.2619047164916992e+01" cType="1" res="-2.0848056301474571e-02" rms="3.6346274614334106e-01" purity="2.3322258889675140e-01" nType="0">
              <Node pos="l" depth="4" NCoef="0" IVar="-1" Cut="0.0000000000000000e+00" cType="1" res="6.0621667653322220e-03" rms="4.0442356467247009e-01" purity="3.2798749208450317e-01" nType="-99"/>
              <Node pos="r" depth="4" NCoef="0" IVar="-1" Cut="0.0000000000000000e+00" cType="1" res="-1.1230072006583214e-02" rms="3.3819255232810974e-01" purity="1.8883252143859863e-01" nType="-99"/>
            </Node>
            <Node pos="r" depth="3" NCoef="0" IVar="-1" Cut="0.0000000000000000e+00" cType="1" res="1.1105183511972427e-02" rms="3.9775273203849792e-01" purity="7.6573079824447632e-01" nType="-99"/>
          </Node>
          <Node pos="r" depth="2" NCoef="0" IVar="-1" Cut="0.0000000000000000e+00" cType="1" res="1.1446233838796616e-02" rms="3.6925792694091797e-01" purity="8.0977195501327515e-01" nType="-99"/>
        </Node>
        <Node pos="r" depth="1" NCoef="0" IVar="2" Cut="2.5227253437042236e+00" cType="1" res="2.4197663366794586e-01" rms="3.0382338166236877e-01" purity="8.7176066637039185e-01" nType="0">
          <Node pos="l" depth="2" NCoef="0" IVar="25" Cut="1.8333333969116211e+01" cType="1" res="1.7674674093723297e-01" rms="3.6770841479301453e-01" purity="7.9048460721969604e-01" nType="0">
            <Node pos="l" depth="3" NCoef="0" IVar="-1" Cut="0.0000000000000000e+00" cType="1" res="1.1831870302557945e-02" rms="3.2256051898002625e-01" purity="8.6097860336303711e-01" nType="-99"/>
            <Node pos="r" depth="3" NCoef="0" IVar="-1" Cut="0.0000000000000000e+00" cType="1" res="1.4120958512648940e-03" rms="4.4502559304237366e-01" purity="5.7402157783508301e-01" nType="-99"/>
          </Node>
          <Node pos="r" depth="2" NCoef="0" IVar="-1" Cut="0.0000000000000000e+00" cType="1" res="1.4336930587887764e-02" rms="2.1854607760906219e-01" purity="9.4291770458221436e-01" nType="-99"/>
        </Node>
      </Node>
    </BinaryTree>
    <BinaryTree type="DecisionTree" boostWeight="1.0000000000000000e+00" itree="22">
      <Node pos="s" depth="0" NCoef="0" IVar="21" Cut="2.3562656402587891e+01" cType="1" res="8.7510682642459869e-02" rms="3.6950466036796570e-01" purity="5.0000000000000000e-01" nType="0">
        <Node pos="l" depth="1" NCoef="0" IVar="10" Cut="4.1916656494140625e+00" cType="1" res="3.4422729164361954e-02" rms="3.7699893116950989e-01" purity="3.8064157962799072e-01" nType="0">
          <Node pos="l" depth="2" NCoef="0" IVar="3" Cut="1.2008716583251953e+01" cType="1" res="-7.5019565410912037e-03" rms="3.7415146827697754e-01" purity="2.9085376858711243e-01" nType="0">
            <Node pos="l" depth="3" NCoef="0" IVar="21" Cut="7.1190667152404785e+00" cType="1" res="-3.0390610918402672e-02" rms="3.6347103118896484e-01" purity="2.5586134195327759e-01" nType="0">
              <Node pos="l" depth="4" NCoef="0" IVar="-1" Cut="0.0000000000000000e+00" cType="1" res="-1.8395299091935158e-02" rms="3.3022671937942505e-01" purity="1.5143381059169769e-01" nType="-99"/>
              <Node pos="r" depth="4" NCoef="0" IVar="-1" Cut="0.0000000000000000e+00" cType="1" res="6.6509330645203590e-03" rms="4.4393831491470337e-01" purity="6.5262246131896973e-01" nType="-99"/>
            </Node>
            <Node pos="r" depth="3" NCoef="0" IVar="-1" Cut="0.0000000000000000e+00" cType="1" res="1.7516039311885834e-02" rms="3.8251376152038574e-01" purity="7.4984771013259888e-01" nType="-99"/>
          </Node>
          <Node pos="r" depth="2" NCoef="0" IVar="-1" Cut="0.0000000000000000e+00" cType="1" res="1.3559714891016483e-02" rms="2.9426735639572144e-01" purity="8.9516907930374146e-01" nType="-99"/>
        </Node>
        <Node pos="r" depth="1" NCoef="0" IVar="14" Cut="2.9527697563171387e+00" cType="1" res="2.6890453696250916e-01" rms="2.7365046739578247e-01" purity="9.0783035755157471e-01" nType="0">
          <Node pos="l" depth="2" NCoef="0" IVar="-1" Cut="0.0000000000000000e+00" cType="1" res="1.0188493877649307e-02" rms="3.8973411917686462e-01" purity="7.8199160099029541e-01" nType="-99"/>
          <Node pos="r" depth="2" NCoef="0" IVar="-1" Cut="0.0000000000000000e+00" cType="1" res="1.4141352847218513e-02" rms="2.2324627637863159e-01" purity="9.4431924819946289e-01" nType="-99"/>
        </Node>
      </Node>
    </BinaryTree>
    <BinaryTree type="DecisionTree" boostWeight="1.0000000000000000e+00" itree="23">
      <Node pos="s" depth="0" NCoef="0" IVar="10" Cut="6.2390847206115723e+00" cType="1" res="8.7422832846641541e-02" rms="3.6717864871025085e-01" purity="5.0000000000000000e-01" nType="0">
        <Node pos="l" depth="1" NCoef="0" IVar="10" Cut="2.2366964817047119e+00" cType="1" res="4.4431243091821671e-02" rms="3.7736895680427551e-01" purity="4.0770170092582703e-01" nType="0">
          <Node pos="l" depth="2" NCoef="0" IVar="21" Cut="2.3562656402587891e+01" cType="1" res="-6.9313789717853069e-03" rms="3.6585682630538940e-01" purity="2.9133385419845581e-01" nType="0">
            <Node pos="l" depth="3" NCoef="0" IVar="21" Cut="8.3839502334594727e+00" cType="1" res="-3.1347453594207764e-02" rms="3.5608056187629700e-01" purity="2.2993494570255280e-01" nType="0">
              <Node pos="l" depth="4" NCoef="0" IVar="-1" Cut="0.0000000000000000e+00" cType="1" res="-1.5893472358584404e-02" rms="3.3062145113945007e-01" purity="1.5221586823463440e-01" nType="-99"/>
              <Node pos="r" depth="4" NCoef="0" IVar="-1" Cut="0.0000000000000000e+00" cType="1" res="6.3095311634242535e-03" rms="4.4774004817008972e-01" purity="6.4462506771087646e-01" nType="-99"/>
            </Node>
            <Node pos="r" depth="3" NCoef="0" IVar="-1" Cut="0.0000000000000000e+00" cType="1" res="1.0580273345112801e-02" rms="3.8289824128150940e-01" purity="7.9740256071090698e-01" nType="-99"/>
          </Node>
          <Node pos="r" depth="2" NCoef="0" IVar="2" Cut="2.5795462131500244e+00" cType="1" res="1.9113239645957947e-01" rms="3.7119936943054199e-01" purity="7.4006986618041992e-01" nType="0">
            <Node pos="l" depth="3" NCoef="0" IVar="25" Cut="1.7666666030883789e+01" cType="1" res="1.1979627609252930e-01" rms="4.0759509801864624e-01" purity="6.2976652383804321e-01" nType="0">
              <Node pos="l" depth="4" NCoef="0" IVar="-1" Cut="0.0000000000000000e+00" cType="1" res="1.1122017167508602e-02" rms="3.8584774732589722e-01" purity="7.1766817569732666e-01" nType="-99"/>
              <Node pos="r" depth="4" NCoef="0" IVar="-1" Cut="0.0000000000000000e+00" cType="1" res="-1.2512367684394121e-03" rms="4.2135837674140930e-01" purity="4.3993046879768372e-01" nType="-99"/>
            </Node>
            <Node pos="r" depth="3" NCoef="0" IVar="-1" Cut="0.0000000000000000e+00" cType="1" res="1.4219555072486401e-02" rms="2.9990899562835693e-01" purity="8.7338811159133911e-01" nType="-99"/>
          </Node>
        </Node>
        <Node pos="r" depth="1" NCoef="0" IVar="-1" Cut="0.0000000000000000e+00" cType="1" res="1.4293279498815536e-02" rms="2.1166665852069855e-01" purity="9.5027059316635132e-01" nType="-99"/>
      </Node>
    </BinaryTree>
    <BinaryTree type="DecisionTree" boostWeight="1.0000000000000000e+00" itree="24">
      <Node pos="s" depth="0" NCoef="0" IVar="15" Cut="-9.2144799232482910e-01" cType="1" res="8.6925782263278961e-02" rms="3.6523726582527161e-01" purity="5.0000000000000000e-01" nType="0">
        <Node pos="l" depth="1" NCoef="0" IVar="21" Cut="2.3562656402587891e+01" cType="1" res="2.6264237239956856e-02" rms="3.7373453378677368e-01" purity="3.4071013331413269e-01" nType="0">
          <Node pos="l" depth="2" NCoef="0" IVar="21" Cut="4.5892996788024902e+00" cType="1" res="3.4214826300740242e-03" rms="3.6802390217781067e-01" purity="2.8106456995010376e-01" nType="0">
            <Node pos="l" depth="3" NCoef="0" IVar="25" Cut="1.1047618865966797e+01" cType="1" res="-3.5331498831510544e-02" rms="3.2738175988197327e-01" purity="1.5925838053226471e-01" nType="0">
              <Node pos="l" depth="4" NCoef="0" IVar="-1" Cut="0.0000000000000000e+00" cType="1" res="4.2912438511848450e-03" rms="3.8657245039939880e-01" purity="2.4016019701957703e-01" nType="-99"/>
              <Node pos="r" depth="4" NCoef="0" IVar="-1" Cut="0.0000000000000000e+00" cType="1" res="-1.7778379842638969e-02" rms="3.0264416337013245e-01" purity="1.3219571113586426e-01" nType="-99"/>
            </Node>
            <Node pos="r" depth="3" NCoef="0" IVar="20" Cut="8.3053149282932281e-02" cType="1" res="1.0508893430233002e-01" rms="4.4194120168685913e-01" purity="6.0061991214752197e-01" nType="0">
              <Node pos="l" depth="4" NCoef="0" IVar="-1" Cut="0.0000000000000000e+00" cType="1" res="1.1052942834794521e-02" rms="4.1739884018898010e-01" purity="6.9559943675994873e-01" nType="-99"/>
              <Node pos="r" depth="4" NCoef="0" IVar="-1" Cut="0.0000000000000000e+00" cType="1" res="1.4761605998501182e-03" rms="4.5293134450912476e-01" purity="4.9169331789016724e-01" nType="-99"/>
            </Node>
          </Node>
          <Node pos="r" depth="2" NCoef="0" IVar="-1" Cut="0.0000000000000000e+00" cType="1" res="1.1144905351102352e-02" rms="3.6893129348754883e-01" purity="8.1639713048934937e-01" nType="-99"/>
        </Node>
        <Node pos="r" depth="1" NCoef="0" IVar="2" Cut="2.5227253437042236e+00" cType="1" res="2.2850146889686584e-01" rms="3.0018576979637146e-01" purity="8.7176066637039185e-01" nType="0">
          <Node pos="l" depth="2" NCoef="0" IVar="25" Cut="1.8333333969116211e+01" cType="1" res="1.6703696548938751e-01" rms="3.6326453089714050e-01" purity="7.9048460721969604e-01" nType="0">
            <Node pos="l" depth="3" NCoef="0" IVar="-1" Cut="0.0000000000000000e+00" cType="1" res="1.1424979194998741e-02" rms="3.1941506266593933e-01" purity="8.6097860336303711e-01" nType="-99"/>
            <Node pos="r" depth="3" NCoef="0" IVar="-1" Cut="0.0000000000000000e+00" cType="1" res="1.2907093623653054e-03" rms="4.4071859121322632e-01" purity="5.7402157783508301e-01" nType="-99"/>
          </Node>
          <Node pos="r" depth="2" NCoef="0" IVar="-1" Cut="0.0000000000000000e+00" cType="1" res="1.3876862823963165e-02" rms="2.1741411089897156e-01" purity="9.4291770458221436e-01" nType="-99"/>
        </Node>
      </Node>
    </BinaryTree>
    <BinaryTree type="DecisionTree" boostWeight="1.0000000000000000e+00" itree="25">
      <Node pos="s" depth="0" NCoef="0" IVar="10" Cut="6.2390847206115723e+00" cType="1" res="8.5953332483768463e-02" rms="3.6375561356544495e-01" purity="5.0000000000000000e-01" nType="0">
        <Node pos="l" depth="1" NCoef="0" IVar="10" Cut="2.2366964817047119e+00" cType="1" res="4.4810641556978226e-02" rms="3.7460026144981384e-01" purity="4.0770170092582703e-01" nType="0">
          <Node pos="l" depth="2" NCoef="0" IVar="21" Cut="2.3562656402587891e+01" cType="1" res="-3.9751506410539150e-03" rms="3.6409419775009155e-01" purity="2.9133385419845581e-01" nType="0">
            <Node pos="l" depth="3" NCoef="0" IVar="21" Cut="4.5892996788024902e+00" cType="1" res="-2.6791540905833244e-02" rms="3.5504257678985596e-01" purity="2.2993494570255280e-01" nType="0">
              <Node pos="l" depth="4" NCoef="0" IVar="-1" Cut="0.0000000000000000e+00" cType="1" res="-2.4760097265243530e-02" rms="3.0237835645675659e-01" purity="1.1009439826011658e-01" nType="-99"/>
              <Node pos="r" depth="4" NCoef="0" IVar="-1" Cut="0.0000000000000000e+00" cType="1" res="4.2947651818394661e-03" rms="4.5600211620330811e-01" purity="5.4628324508666992e-01" nType="-99"/>
            </Node>
            <Node pos="r" depth="3" NCoef="0" IVar="-1" Cut="0.0000000000000000e+00" cType="1" res="1.0128164663910866e-02" rms="3.8283079862594604e-01" purity="7.9740256071090698e-01" nType="-99"/>
          </Node>
          <Node pos="r" depth="2" NCoef="0" IVar="2" Cut="2.5795462131500244e+00" cType="1" res="1.8415188789367676e-01" rms="3.6915802955627441e-01" purity="7.4006986618041992e-01" nType="0">
            <Node pos="l" depth="3" NCoef="0" IVar="25" Cut="1.7666666030883789e+01" cType="1" res="1.1553265154361725e-01" rms="4.0553900599479675e-01" purity="6.2976652383804321e-01" nType="0">
              <Node pos="l" depth="4" NCoef="0" IVar="-1" Cut="0.0000000000000000e+00" cType="1" res="1.0791237466037273e-02" rms="3.8458573818206787e-01" purity="7.1766817569732666e-01" nType="-99"/>
              <Node pos="r" depth="4" NCoef="0" IVar="-1" Cut="0.0000000000000000e+00" cType="1" res="-1.0891687124967575e-03" rms="4.2028701305389404e-01" purity="4.3993046879768372e-01" nType="-99"/>
            </Node>
            <Node pos="r" depth="3" NCoef="0" IVar="-1" Cut="0.0000000000000000e+00" cType="1" res="1.3881711289286613e-02" rms="2.9940477013587952e-01" purity="8.7338811159133911e-01" nType="-99"/>
          </Node>
        </Node>
        <Node pos="r" depth="1" NCoef="0" IVar="-1" Cut="0.0000000000000000e+00" cType="1" res="1.4013431034982204e-02" rms="2.1145333349704742e-01" purity="9.5027059316635132e-01" nType="-99"/>
      </Node>
    </BinaryTree>
    <BinaryTree type="DecisionTree" boostWeight="1.0000000000000000e+00" itree="26">
      <Node pos="s" depth="0" NCoef="0" IVar="10" Cut="6.2390847206115723e+00" cType="1" res="8.5908651351928711e-02" rms="3.6173626780509949e-01" purity="5.0000000000000000e-01" nType="0">
        <Node pos="l" depth="1" NCoef="0" IVar="10" Cut="2.2366964817047119e+00" cType="1" res="4.6023089438676834e-02" rms="3.7303879857063293e-01" purity="4.0770170092582703e-01" nType="0">
          <Node pos="l" depth="2" NCoef="0" IVar="21" Cut="2.3562656402587891e+01" cType="1" res="-7.5050105806440115e-04" rms="3.6317458748817444e-01" purity="2.9133385419845581e-01" nType="0">
            <Node pos="l" depth="3" NCoef="0" IVar="21" Cut="9.6488332748413086e+00" cType="1" res="-2.2603671997785568e-02" rms="3.5454007983207703e-01" purity="2.2993494570255280e-01" nType="0">
              <Node pos="l" depth="4" NCoef="0" IVar="-1" Cut="0.0000000000000000e+00" cType="1" res="-1.1425931006669998e-02" rms="3.3486491441726685e-01" purity="1.6316346824169159e-01" nType="-99"/>
              <Node pos="r" depth="4" NCoef="0" IVar="-1" Cut="0.0000000000000000e+00" cType="1" res="6.4350361935794353e-03" rms="4.4217091798782349e-01" purity="6.5969473123550415e-01" nType="-99"/>
            </Node>
            <Node pos="r" depth="3" NCoef="0" IVar="-1" Cut="0.0000000000000000e+00" cType="1" res="9.9184261634945869e-03" rms="3.8287696242332458e-01" purity="7.9740256071090698e-01" nType="-99"/>
          </Node>
          <Node pos="r" depth="2" NCoef="0" IVar="2" Cut="2.5795462131500244e+00" cType="1" res="1.7961712181568146e-01" rms="3.6851587891578674e-01" purity="7.4006986618041992e-01" nType="0">
            <Node pos="l" depth="3" NCoef="0" IVar="14" Cut="3.2307333946228027e+00" cType="1" res="1.1238302290439606e-01" rms="4.0500044822692871e-01" purity="6.2976652383804321e-01" nType="0">
              <Node pos="l" depth="4" NCoef="0" IVar="-1" Cut="0.0000000000000000e+00" cType="1" res="2.4788531009107828e-03" rms="4.3590766191482544e-01" purity="4.6033090353012085e-01" nType="-99"/>
              <Node pos="r" depth="4" NCoef="0" IVar="-1" Cut="0.0000000000000000e+00" cType="1" res="1.1125422082841396e-02" rms="3.5137581825256348e-01" purity="7.9899978637695312e-01" nType="-99"/>
            </Node>
            <Node pos="r" depth="3" NCoef="0" IVar="-1" Cut="0.0000000000000000e+00" cType="1" res="1.3654924929141998e-02" rms="2.9937756061553955e-01" purity="8.7338811159133911e-01" nType="-99"/>
          </Node>
        </Node>
        <Node pos="r" depth="1" NCoef="0" IVar="-1" Cut="0.0000000000000000e+00" cType="1" res="1.3840527273714542e-02" rms="2.1146364510059357e-01" purity="9.5027059316635132e-01" nType="-99"/>
      </Node>
    </BinaryTree>
    <BinaryTree type="DecisionTree" boostWeight="1.0000000000000000e+00" itree="27">
      <Node pos="s" depth="0" NCoef="0" IVar="10" Cut="6.2390847206115723e+00" cType="1" res="8.4971815347671509e-02" rms="3.6023432016372681e-01" purity="5.0000000000000000e-01" nType="0">
        <Node pos="l" depth="1" NCoef="0" IVar="14" Cut="3.2942318916320801e+00" cType="1" res="4.6133238822221756e-02" rms="3.7193393707275391e-01" purity="4.0770170092582703e-01" nType="0">
          <Node pos="l" depth="2" NCoef="0" IVar="10" Cut="2.2366964817047119e+00" cType="1" res="-1.0856975801289082e-02" rms="3.6198580265045166e-01" purity="2.6087930798530579e-01" nType="0">
            <Node pos="l" depth="3" NCoef="0" IVar="25" Cut="1.2857142448425293e+01" cType="1" res="-3.5415645688772202e-02" rms="3.4137794375419617e-01" purity="1.8969617784023285e-01" nType="0">
              <Node pos="l" depth="4" NCoef="0" IVar="-1" Cut="0.0000000000000000e+00" cType="1" res="3.6708039697259665e-03" rms="3.8288450241088867e-01" purity="2.5646528601646423e-01" nType="-99"/>
              <Node pos="r" depth="4" NCoef="0" IVar="-1" Cut="0.0000000000000000e+00" cType="1" res="-1.5959672629833221e-02" rms="3.1828999519348145e-01" purity="1.6020607948303223e-01" nType="-99"/>
            </Node>
            <Node pos="r" depth="3" NCoef="0" IVar="25" Cut="1.9333333969116211e+01" cType="1" res="1.0024540871381760e-01" rms="4.2606979608535767e-01" purity="5.8290874958038330e-01" nType="0">
              <Node pos="l" depth="4" NCoef="0" IVar="-1" Cut="0.0000000000000000e+00" cType="1" res="1.0216191411018372e-02" rms="4.1674795746803284e-01" purity="6.4518600702285767e-01" nType="-99"/>
              <Node pos="r" depth="4" NCoef="0" IVar="-1" Cut="0.0000000000000000e+00" cType="1" res="-1.5271784504875541e-03" rms="4.2494592070579529e-01" purity="4.3799510598182678e-01" nType="-99"/>
            </Node>
          </Node>
          <Node pos="r" depth="2" NCoef="0" IVar="3" Cut="5.4614911079406738e+00" cType="1" res="1.5126770734786987e-01" rms="3.6709523200988770e-01" purity="6.7855691909790039e-01" nType="0">
            <Node pos="l" depth="3" NCoef="0" IVar="15" Cut="-6.8388265371322632e-01" cType="1" res="6.9411188364028931e-02" rms="3.9603945612907410e-01" purity="5.4101008176803589e-01" nType="0">
              <Node pos="l" depth="4" NCoef="0" IVar="-1" Cut="0.0000000000000000e+00" cType="1" res="1.4028884470462799e-03" rms="4.0300786495208740e-01" purity="3.8488596677780151e-01" nType="-99"/>
              <Node pos="r" depth="4" NCoef="0" IVar="-1" Cut="0.0000000000000000e+00" cType="1" res="9.0664168819785118e-03" rms="3.6866238713264465e-01" purity="7.7991110086441040e-01" nType="-99"/>
            </Node>
            <Node pos="r" depth="3" NCoef="0" IVar="-1" Cut="0.0000000000000000e+00" cType="1" res="1.4615010470151901e-02" rms="2.5831297039985657e-01" purity="9.1166031360626221e-01" nType="-99"/>
          </Node>
        </Node>
        <Node pos="r" depth="1" NCoef="0" IVar="-1" Cut="0.0000000000000000e+00" cType="1" res="1.3672721572220325e-02" rms="2.1147477626800537e-01" purity="9.5027059316635132e-01" nType="-99"/>
      </Node>
    </BinaryTree>
    <BinaryTree type="DecisionTree" boostWeight="1.0000000000000000e+00" itree="28">
      <Node pos="s" depth="0" NCoef="0" IVar="24" Cut="5.4212088584899902e+00" cType="1" res="8.3853594958782196e-02" rms="3.5868287086486816e-01" purity="5.0000000000000000e-01" nType="0">
        <Node pos="l" depth="1" NCoef="0" IVar="21" Cut="2.3562656402587891e+01" cType="1" res="4.6565562486648560e-02" rms="3.7240296602249146e-01" purity="4.0915867686271667e-01" nType="0">
          <Node pos="l" depth="2" NCoef="0" IVar="10" Cut="4.1916656494140625e+00" cType="1" res="2.0464861765503883e-02" rms="3.7146952748298645e-01" purity="3.3553117513656616e-01" nType="0">
            <Node pos="l" depth="3" NCoef="0" IVar="21" Cut="4.5892996788024902e+00" cType="1" res="-8.9196087792515755e-03" rms="3.6824101209640503e-01" purity="2.6131144165992737e-01" nType="0">
              <Node pos="l" depth="4" NCoef="0" IVar="-1" Cut="0.0000000000000000e+00" cType="1" res="-1.4164844527840614e-02" rms="3.2093852758407593e-01" purity="1.3495767116546631e-01" nType="-99"/>
              <Node pos="r" depth="4" NCoef="0" IVar="-1" Cut="0.0000000000000000e+00" cType="1" res="5.0478656776249409e-03" rms="4.5437842607498169e-01" purity="5.6867706775665283e-01" nType="-99"/>
            </Node>
            <Node pos="r" depth="3" NCoef="0" IVar="-1" Cut="0.0000000000000000e+00" cType="1" res="1.2075257487595081e-02" rms="3.2267594337463379e-01" purity="8.7050366401672363e-01" nType="-99"/>
          </Node>
          <Node pos="r" depth="2" NCoef="0" IVar="-1" Cut="0.0000000000000000e+00" cType="1" res="1.0938248597085476e-02" rms="3.3813297748565674e-01" purity="8.5005617141723633e-01" nType="-99"/>
        </Node>
        <Node pos="r" depth="1" NCoef="0" IVar="-1" Cut="0.0000000000000000e+00" cType="1" res="1.3697760179638863e-02" rms="1.8583665788173676e-01" purity="9.6225035190582275e-01" nType="-99"/>
      </Node>
    </BinaryTree>
    <BinaryTree type="DecisionTree" boostWeight="1.0000000000000000e+00" itree="29">
      <Node pos="s" depth="0" NCoef="0" IVar="24" Cut="5.4212088584899902e+00" cType="1" res="8.3096310496330261e-02" rms="3.5728228092193604e-01" purity="5.0000000000000000e-01" nType="0">
        <Node pos="l" depth="1" NCoef="0" IVar="14" Cut="-4.8230725526809692e-01" cType="1" res="4.6803303062915802e-02" rms="3.7138733267784119e-01" purity="4.0915867686271667e-01" nType="0">
          <Node pos="l" depth="2" NCoef="0" IVar="5" Cut="1.3417846679687500e+01" cType="1" res="-1.7594020813703537e-02" rms="3.4059160947799683e-01" purity="2.0447652041912079e-01" nType="0">
            <Node pos="l" depth="3" NCoef="0" IVar="25" Cut="1.2619047164916992e+01" cType="1" res="-3.9951317012310028e-02" rms="3.2129335403442383e-01" purity="1.6365486383438110e-01" nType="0">
              <Node pos="l" depth="4" NCoef="0" IVar="-1" Cut="0.0000000000000000e+00" cType="1" res="3.4933774732053280e-03" rms="3.7625116109848022e-01" purity="2.5677335262298584e-01" nType="-99"/>
              <Node pos="r" depth="4" NCoef="0" IVar="-1" Cut="0.0000000000000000e+00" cType="1" res="-2.4888420477509499e-02" rms="2.8610733151435852e-01" purity="1.1793705075979233e-01" nType="-99"/>
            </Node>
